436 300
ที่ -2.8567515e-06 0.00015373043 0.0009221962 0.0011765739 -0.0014579704 0.001514655 0.0011274867 0.0010280007 -0.0006426276 0.00011461545 5.8490587e-05 -0.00055594556 -0.0011711383 -3.4037672e-05 -0.0006560066 -0.0010009224 -0.00019611092 -0.0016045915 0.0004260894 0.0016631604 -0.0014092525 -0.00078672596 0.0007952051 0.0011241713 -0.0006246243 -0.0012869595 0.00044227633 -0.00036310183 0.0010827818 0.0014607263 -0.0006439505 -0.0015599154 0.0008528765 -0.00056311884 0.00077118544 0.00037992347 0.0002012711 -7.915625e-05 0.00095412985 0.0005381433 -0.0007455927 0.0010112658 0.00092545483 0.00072414236 -0.00035548324 -0.00011007988 -0.00024785407 0.0015270323 -0.0007024647 0.00074350403 -0.00037744883 0.0011011766 -0.0002684708 -0.0010692871 0.0015206235 0.00027300772 0.0015628973 0.00048162884 0.00051924045 -0.0013416281 0.0009830806 0.0015252437 0.0014478554 0.00021128634 -0.00036496646 -0.0007467208 -0.0014201136 0.00045817072 -0.0015669543 -0.001185439 -0.00051205483 -0.0015086916 0.0016589141 -2.7464688e-05 0.001250732 -0.0013109273 -0.00028408132 0.00031602258 -0.001143151 0.00065302354 -0.0010187463 0.0011020709 0.0010411802 0.0014102245 0.0011682186 -0.00097370386 -0.0010637161 0.0012760694 0.0002841404 0.0004983551 -9.219716e-05 0.0013314094 -0.00021606172 0.0005975904 0.0008247609 0.0013630367 0.00048786346 -0.00068578613 -0.00085029315 -0.0006250712 0.0010123028 0.001439964 -0.0006082653 -0.0009004305 3.1120246e-05 0.0015763937 -0.0005609465 -0.00097119267 -0.000109956934 0.0006517888 0.00044336755 -0.00044832018 -0.0013635044 0.00047073333 -0.0009583779 -1.7864131e-05 0.0016572243 0.000494753 -0.00081979705 0.0010679145 -5.539979e-05 -0.0010510682 0.00095902453 0.0006860968 -7.2677685e-05 -0.0014335103 0.00085582567 -0.00011462395 -0.00031508933 -0.00083504716 0.00078221894 -0.0013618796 -0.0006762691 0.0012879765 -0.0012701561 0.00050077785 0.00017145608 0.0012097411 -0.00046471704 0.0005559343 -0.0003480865 0.0016092167 0.00023609045 0.00031853936 0.0005866348 0.0010137043 0.00027999352 -0.0012868627 -0.00027541092 -0.0014952024 0.00062131864 0.0010132549 -0.0014068605 0.00046280294 -0.0010947987 -0.0005617603 0.0014049073 -0.001377083 -0.0012757865 0.0009797333 3.0492325e-05 -0.0015136685 0.0016570428 0.0005033824 0.001031469 -0.0014795318 -0.0015377782 0.00089404045 0.0015190103 -0.0011664708 0.00092065893 -0.0011123555 0.0005194282 0.0006648092 0.0007937581 0.00059857685 0.0015467692 -0.0010542527 0.001158973 0.0009879019 0.0013191538 -0.00042808827 0.0010171438 -7.334012e-05 -0.00025234692 -0.0014467216 0.00088438805 -0.0013713158 0.0007577568 -0.00027399216 0.0015868272 0.0010137483 0.00022818723 -0.0007168777 -0.0005428989 0.0009863223 -0.000106435684 0.0013392271 0.0014296912 0.0011518628 0.00049988186 0.00044692223 0.0011540267 -0.000289735 -0.0009780525 9.6887095e-05 0.0011863163 0.0002257575 0.0012869695 0.00065895834 0.000760804 0.00058590533 -0.0007677917 1.3900026e-05 0.0002074356 0.0016582749 -0.0004590086 -0.0012551766 -0.0006482062 0.0013259628 0.0011036419 0.0011164146 -0.00076529116 -0.0005950232 -0.00013671686 -0.0015190856 -0.0012174846 0.00035057717 0.00036449012 0.0010742801 0.0004684724 0.00024682604 -0.0012257219 -0.001110223 0.0004495398 5.8430604e-05 0.00060889876 -0.0009782625 0.0015663726 -0.0014022388 -0.0010167756 0.0014165225 -0.0005870058 -0.00114799 0.0004692257 0.00089080737 -0.0008876212 2.4165405e-05 0.00016383905 0.0003376707 -0.00066631543 -0.00078232505 -0.001498481 0.00081725034 0.0013388974 0.0013724886 0.0013191618 -0.0015264143 0.0012235369 -3.8359736e-05 -0.0010860598 -0.00061005686 -0.0015228044 0.000580439 -1.255993e-05 0.0012379407 0.00078338955 -0.0010955168 -0.00064210064 0.0014334668 0.00056753575 0.0010376776 0.00015570359 0.0011936523 -0.0005980203 0.00036223102 0.00094965013 -0.00031705014 0.0015503 0.0013222456 -0.0006256514 -0.00017456095 0.00027416451 -0.0010277178 -0.0006668946 -0.0013427386 0.00020657455 0.0012806482 0.0006425502 -0.00056337693 -0.0001036295 0.0008576543 0.000851875 -3.835804e-05 -0.0008288644 -0.0007764984 -0.0007694717 -0.00034134384 -0.00016229569 0.0012330111
มี -0.001403873 0.0012902892 -0.0008420725 0.0009144554 -0.0007819249 -0.0011018709 -0.0013792467 -0.00044247185 -0.0007454261 0.0016586796 -0.0008882901 -0.00023301512 -0.00063900906 0.00017490292 0.0016544865 -0.0010023837 0.00094471156 0.0012450592 -0.0016265408 0.00090482534 -0.00010503858 0.00014492549 -0.001337801 0.00159832 0.00038393433 -0.00022273374 -0.0010150591 0.00017503413 2.4217356e-05 0.00067483296 0.00044989501 5.544415e-05 0.00017824279 -5.506449e-05 -7.0528746e-05 0.0010981954 0.0012368853 0.001462072 0.0010273246 -0.0004613721 0.00092650775 -0.0009959561 0.0013378381 -0.0010941848 0.0008801236 -0.00023597358 0.0016426865 -0.0002085875 0.00063534564 0.0015996646 -0.0015688636 -0.00023434257 0.0014804234 -0.00075982226 0.0015516931 0.00023161137 -0.00042154122 0.0004791887 0.0013509975 -0.00010275457 0.000451398 -0.0015204644 -0.00037812398 0.0015375114 0.00070672116 0.0013244204 -0.00013126322 0.0016153534 -0.00016770256 0.0010134046 0.0005504871 -0.0012654772 0.0008091364 0.0010785295 0.0015690196 8.6916996e-05 -0.00025526673 0.0006604473 -0.0002466677 0.001353652 -0.0016651286 0.0012954536 0.0011394767 0.0003917982 0.00062414 -0.0014393744 0.00018895262 0.0011550542 -0.00044847338 0.0001057631 0.0012442139 -0.00029567824 0.0016000256 -0.00053644925 0.00033142747 0.0015151361 0.0016596172 0.0011572861 -0.0007313011 0.001463047 0.00047407852 0.0011958033 0.00040561092 -0.0015005755 -0.0007535897 0.00062967656 0.0008443227 0.00042500757 0.0009454707 0.00029982888 0.0008237057 -0.0007285578 -0.0010197987 -0.0010891584 -0.00095547864 0.00068502536 0.001301366 -0.00020995377 0.0014543943 0.0004068946 -0.0015604772 -0.00042441246 -0.001319864 -0.0012262341 0.00022662677 -0.00055828155 0.0013798631 -0.0010833604 0.0015217235 0.001240226 0.001628828 -0.0002958353 -0.000661653 0.0002276251 -0.00045432727 0.0009007365 -0.0011026084 0.00037195426 -0.0011491652 0.0012830531 -0.00084305316 -0.00015926003 -0.00040555975 -4.619445e-05 -0.00035768448 -0.0004303923 -0.0015460545 0.0012763072 -0.00051222194 -0.00041683216 0.00013754815 0.00051387574 -0.0014677308 0.00016591647 0.00015777002 -0.0001536836 0.00035253237 -0.0008185567 0.00028396468 0.0006248423 -0.0012365887 0.0009100646 -0.001273663 -0.001291482 7.300616e-05 -0.0011222393 0.0010884657 -0.0012274695 -0.0013427886 -0.0012889697 -0.0010231796 -0.0008563762 0.0015823364 0.0010951133 0.0014827575 0.0012403944 -0.0015052181 -0.0015277308 -0.0008130838 0.00090856984 -0.0014248182 -0.00014682305 -0.0007221553 -0.0010698899 0.00025131102 0.0015203292 -5.0980602e-06 1.7973343e-05 0.00066127843 0.0012333824 -0.0009658128 -0.00028292552 0.0013391421 -0.0004010849 -0.0016004397 -0.0011851402 0.00015262696 0.00091367576 -0.0015960203 0.0007730274 -0.001091874 -0.00041331036 0.0009682682 9.294169e-06 -0.00016139683 -0.0007598078 0.0013266227 0.0006185315 -4.748695e-05 -0.0006604832 -0.00029314894 0.00027599756 -0.0015068094 -0.0011979183 0.0007299549 -0.0016659667 0.0009496264 0.0009313984 -0.0012808404 -0.00089920853 0.0007186507 0.0008523958 0.0016047577 1.1977801e-06 0.0010059252 0.0010804668 0.0010667256 -0.00059102074 -0.0010117935 -0.0016295644 -0.00051182305 -4.7975514e-05 -0.0013666565 0.00064623856 6.318029e-05 -0.00038096638 -0.00064076774 -0.00021643209 -0.00023262596 0.00021379214 0.00051922764 -0.00083101605 -0.0013609071 0.0014964145 0.0013214509 8.368729e-05 -0.0013732443 0.0004316075 -0.0006956325 -0.0015358063 7.84876e-05 0.0013048853 0.00071244314 -0.0014148364 -0.0014546878 -0.0010953444 -0.001321702 0.000806816 -0.00023914491 -0.0014108532 -0.00032971142 0.00012862499 -0.0015624395 -0.0014240287 -0.0014894594 -0.00087070564 -0.00039997944 -0.0009942385 -0.0013392424 0.00025065418 0.0016340391 0.00095094234 -0.00058360735 -0.0013075037 -0.00038244447 -0.00020656682 0.000877376 -0.00020348706 -0.000535518 0.0005267069 0.001290556 -0.0012853129 -0.00023055247 -0.0014727163 -0.0003564304 5.4500764e-05 -0.0010326282 -0.0011977707 0.0012340507 -2.7724082e-05 -0.00068896555 -0.0014847533 0.00084153976 0.0003090311 0.001142128 -6.888814e-05 -0.001022226 0.0001730384 0.0005827982 0.0010028562
ใน 0.0014459474 0.0016154556 0.0014934621 0.0010622226 0.0015808344 -0.0010932153 0.0010675649 0.00094571855 -0.0010316857 0.00028674112 -0.0006242747 -0.0005422543 0.001127802 -0.00071218336 -0.0009530156 0.00048494252 0.0006759592 -0.00083173317 -0.0002134451 -0.0003288701 0.00015769941 -0.0013851288 -0.0004812071 5.3219503e-07 -0.0010840652 -0.001398248 -0.0009984878 -0.0003997607 -0.0012070988 -0.0009451274 0.0006129823 0.0008404292 0.0006717146 0.0005622875 -0.00094378856 0.0011717455 -0.0007838714 0.00065767596 -0.0006862448 0.00021883391 0.0009074809 0.00027507608 -0.0010351347 -0.00042536156 -0.00076356425 -0.0013636248 0.0004639848 0.0015759141 0.0008769201 -0.00074500975 0.00053434353 0.0008953091 0.0016548666 0.0004696483 -0.0011534778 -0.00045113443 0.0008250723 -0.001614325 0.00064515165 -0.0012298469 -0.00026327837 0.0013271014 -0.0015315337 -0.0016500559 0.0009829439 -0.00016051887 0.0015258321 0.00024237004 -0.0003474099 0.00040206203 -0.00011167161 0.001040705 0.0014551366 -0.0008864683 0.0013028191 0.00069814426 0.00151166 0.0014787589 -0.00051930506 0.0015121521 -3.9667724e-05 -0.0012547863 -0.00065537065 0.0006368447 -0.0007669265 0.0008530017 0.00090526376 0.0009091984 -0.0012359171 0.0013780475 0.00044321874 0.0013224037 0.0015145866 -0.00069822714 0.00051955687 -0.0010627183 0.000120013705 0.0012040013 -0.0005438849 0.0015235235 -0.0012749641 -0.000376541 -0.00055609026 0.0005065214 0.0006014376 0.00035420439 -8.22109e-05 0.0009034535 -0.0004204411 -0.0007439762 0.000539806 -0.0014524343 0.0005679928 -0.001598833 -0.0007426621 -0.0011124493 0.0011463554 -0.0001502586 0.0014893139 -0.00035699506 0.001570512 0.0004335781 0.00047247438 -0.0006619096 0.0011538212 -0.0009942226 0.0013744856 -0.00087616 0.001271284 0.00021789671 0.0002669217 0.00102031 0.00039647953 0.0007665632 -0.000842847 0.00080660015 -0.0014482427 -0.0007396589 0.0001314996 -0.0006347743 9.313355e-05 0.0013805554 -0.0007249062 0.0008799695 -0.0009655309 -0.001415984 0.0016179162 0.0014098745 -0.0007730537 0.00060757465 -0.0011746133 -0.00039688943 0.0006277142 -0.0010197412 -0.0002571162 -0.0007835757 0.0010329002 0.00021464178 0.00081281166 -8.827227e-05 -0.00053707307 0.0010420233 0.00082821044 0.0009411204 -0.0010802072 -0.0013549646 0.00030858724 -0.00070552924 -0.0005577993 0.00011320795 -0.00074705767 0.00034406 0.0012121567 8.7791945e-05 0.0011983304 0.00074975647 0.0002855321 -0.00118049 -3.7024998e-05 4.7478738e-05 -0.0011323713 5.053059e-05 -9.931567e-05 0.0007847445 -0.0014217504 0.0015601676 0.0003828204 0.0009269475 0.0014358856 -0.00070144294 0.0012134071 -0.0011009636 -0.00089913385 0.00090275006 -0.0016626962 0.0014597618 0.00116612 -0.0015586388 0.0009810036 0.0007750352 0.0006367902 0.0011283914 0.0011545704 0.0010276182 -0.00060258404 0.00019326677 0.00031998407 0.0007261429 0.00016917822 -0.0012584764 0.0004793837 9.1768066e-05 0.0008841062 -0.0012409205 3.7513466e-05 -0.0015065059 -0.0005526097 -0.0014807015 0.0013406444 0.0013228772 -0.0010676963 -0.00075534545 -0.0001029004 -0.0015333939 -0.00090521487 -0.0011309995 -0.0011241632 0.0010646131 -0.00020527195 -0.0010354886 -2.5642912e-05 0.0011879731 0.0012722937 -0.0014414988 -0.0016303099 -0.00023128206 0.00032662752 -0.00066715456 0.00053480035 -0.00012118115 -0.0011783435 0.0010816355 0.0003372366 -0.0016570529 -0.0011920187 0.0012239313 -0.00048364425 7.053543e-05 0.0014670246 -0.00083680695 -0.0003224233 0.0016469402 -0.0007350935 0.0005514516 -0.0012827569 0.00017331474 -0.00071150117 -0.0013382079 -0.00077551336 -0.0013144048 -0.00058766204 0.00037083146 0.00064800197 -0.0016012586 -0.00015424126 0.0002305684 -0.0010072576 -8.203621e-05 0.0010219068 0.0011033228 0.0002612451 0.0016133337 -0.0016399127 0.00057160127 0.0013202816 0.000595965 -0.0012031692 -0.0009593835 -0.00041425065 -0.00067961455 -0.00059979636 -0.00096976134 0.001318176 0.0012552353 1.2620967e-06 -0.00083057047 0.0014193883 -6.6059736e-05 -0.00044244304 0.00023814134 -0.0012885369 0.000209495 0.000109842345 -0.0006604404 -0.0015268711 -0.0003394546 -0.0015491277 -0.00046683467 -0.0013511386 -2.3801917e-06
ไม่ 0.000104597726 -0.001431451 -0.00051783357 -0.00018618752 0.0008654208 -0.0010767782 -0.00039202478 0.0013525552 0.0014603257 0.0014958319 -0.00065666763 -0.00092200626 -0.0012805513 -0.0013702253 0.00093830866 0.0010027149 0.00029179148 0.00020629988 3.816748e-05 0.0006795724 0.0012928016 0.00027342304 0.0013003798 -0.0008136294 0.0016514284 0.00013580328 -0.0013551707 -6.150398e-05 0.001169165 5.5635126e-05 -0.0014760989 0.0011798526 0.0007066276 0.0016033472 -0.0014734018 -0.00037502623 0.00056988845 0.0013798242 0.0007346746 -0.00073542766 0.0009905595 -0.0012288867 0.00029621893 0.0015045707 0.00071031373 -0.0010318761 -6.1270446e-05 0.00063322386 -0.00025549432 1.791666e-05 -0.00060319394 0.0006117121 -0.00050269894 0.0005357879 0.0005921276 3.1633626e-05 0.0016389781 3.0527815e-05 0.0016526716 0.00037862838 0.0009483042 0.0003017384 0.0015658208 -0.001349164 -0.00016074968 -0.0014368774 0.0012227619 -0.0008391009 0.00049319956 -0.00020590023 -0.0011404181 -0.0005711188 0.0015988051 -0.00062501297 0.0015802743 -0.001532513 0.00033375018 -8.8936984e-05 8.984935e-05 0.00014754034 0.00095057243 0.0008886707 -0.0010230658 0.00043984354 0.0004233611 -0.0009643094 -0.00068120443 0.0015229803 -0.0010403304 -0.0014157838 0.00049593457 -0.00035616892 0.000425061 0.0008418659 0.0005249571 0.0014866292 -0.001509097 0.00078820856 -0.0008226214 -0.0011149588 0.00046992104 0.0010621202 -5.28371e-05 -0.00078926206 0.0015385172 0.0013341769 0.0016281885 1.7902685e-05 -0.000132083 0.00050380756 -0.00026867367 -1.9652167e-05 0.00014797655 -0.0015704059 0.00077376177 0.0008927474 -0.001402626 0.0016233445 -0.00052700087 0.0014706857 -0.00094148313 0.00011714537 1.7127286e-05 -0.0002569911 -0.0006366007 0.0004524665 -0.0014179102 -0.00037236244 0.00036172854 0.000973238 -6.087329e-05 0.0013118213 0.000102064834 -0.0015901303 -0.00039770015 0.001050482 0.0012702557 0.00080010586 -0.0012875274 0.001511741 0.001511173 0.00023336659 0.0014234808 -0.00042336585 -0.0008519736 -0.0013282035 0.0013003622 0.0009631982 0.0015478508 -0.00026157696 0.00021416789 0.0015831699 -0.0010335268 0.00039725646 0.0011811847 0.0012424852 -0.0012403252 -0.00086732476 -0.00089516264 0.001105987 0.0004785839 -0.0005101322 0.0013518136 -0.000113237635 -0.0007955755 -0.00093012105 0.0004700487 -0.0010983893 -0.0005805731 -0.00040249046 -0.00030605868 0.00011619126 -0.0014063045 -0.00064688484 0.00041321348 0.00025061754 0.0001209653 -0.0013277247 -0.00027294 0.0010245058 -0.0012150807 0.00030159476 -0.0008585314 0.0011315563 0.0016236848 -8.519617e-05 0.00023735737 0.00030654596 0.00023356231 0.0012187656 -0.0012451446 0.00059120805 -0.0008609861 -0.00022283958 8.987086e-05 -0.00055268925 0.0013555111 -4.5407745e-05 0.00068540714 0.00030762076 0.00020976117 0.00047515566 -0.000569402 0.0016154699 -0.0009706556 0.0009519223 -0.0002319327 -0.0012277472 0.0005441057 -0.00027664 -0.000822541 0.0009331326 0.0002783726 -0.0012200646 -0.0012423968 -0.00035499703 0.00021907892 -0.00011125409 0.0007070885 -0.0012454612 -0.0010628776 0.0014918791 0.00012765755 -0.00037246084 0.0014851021 0.0008533847 -0.0012461622 0.0016097524 -0.0008340807 4.475128e-05 0.0014614426 0.001228306 -0.00044819457 -0.00011628866 -0.0013221219 -0.00030298292 -0.00061025354 0.0010054262 -0.0007180424 0.0009965564 -0.00058534107 0.00041676735 0.0014995099 -0.0010387693 -0.0013592604 0.00053432793 0.0014293456 -0.0016186604 -0.0010402785 -0.00017445485 -0.001246486 -0.00095040636 0.0008892723 0.0001447522 -0.0009807369 5.7496305e-05 0.0014182244 0.0013047893 0.0009567595 -0.00017035271 -4.0032515e-05 0.0008896604 -0.0010146283 -0.0015592482 0.0014379722 0.00032799508 0.00085578096 -0.0009463542 0.00056774623 -0.0015086076 -0.00093887345 1.0383727e-06 -0.0010201616 -0.00083307235 0.00050088787 0.0013821808 0.0011819692 -0.0007893754 0.0013752609 0.0009133115 0.0007980538 0.0014440765 -3.3893335e-05 -0.0015531345 -0.00093954377 0.0009198982 -0.00057459343 0.0016272104 0.001198468 -0.0014979811 -0.0005904565 0.00029692266 -0.00031354706 -0.00025167718 -0.00020233894 -0.0011828179 -0.00052318285 -8.8919216e-05 -0.00031195866 0.0012111601
มา 0.0010284078 -0.0013191242 0.0007010448 -0.0011328758 0.00042978342 0.0001923042 -0.00012228447 -0.00096880447 -0.0015386173 -0.0007696922 0.0012123546 0.00034221783 -0.0016603355 -0.0012271786 0.00063625426 -0.00094098103 0.00038437717 0.0013937597 0.0009787015 -0.0007940285 0.0013029444 -0.0015447675 0.0009382284 -0.00017637787 0.001025087 -0.0002497283 -0.001640567 -0.0011680974 0.0005096729 -0.00013915896 0.0014956577 0.00069946214 -0.0014546786 0.00065833435 0.0006310815 0.001403075 0.0007545436 -0.0013716412 -0.00021448951 9.065908e-05 0.00068013574 -0.0016411652 0.0010053479 0.00046161725 -0.0008084891 0.0014628706 0.0007529045 0.0013881187 0.0005634034 0.00065954874 0.0013966827 0.0014519087 -0.00085276744 -0.0015189264 0.00139413 -0.0007703081 -0.00023968922 -8.519331e-05 0.00010951252 0.0007145702 0.00088494713 0.00040039443 0.00053983723 0.00043986138 -0.0010211592 0.0013197297 -0.00067206216 0.0012838537 0.0015867663 -0.0012615239 -0.0015611517 0.0009947445 -4.5290686e-05 0.00046176152 -0.0014445211 -0.0010943492 -0.001618432 0.00038899144 0.0007672724 0.0001186421 -0.0003580471 -0.00071673567 0.0016251176 -0.00046556926 -0.0010994601 0.0016037705 -0.00031928028 0.0016500843 -0.0002480676 0.00085036526 -0.0011020212 -4.346316e-05 0.0003764389 0.0014323652 0.0013202844 -0.0015160171 0.00083684176 -0.0010862827 3.8080787e-05 -1.3589135e-05 -0.0012822651 -0.0011723919 0.00082461874 -0.00034898726 0.0011543924 0.00095764897 5.5229062e-05 0.0010479356 -0.00097465696 0.0008207052 0.0005293289 0.00050717994 0.00022839716 0.0011245335 0.0013900886 -0.0011909476 0.0007691161 0.00090419274 -0.0016239694 -0.0001464695 -0.00069496926 -0.0011526247 0.0006183938 0.00063336873 0.00014722093 0.00043464595 0.00036348912 -0.0008335999 0.00047404156 4.222959e-05 0.0006056255 9.5737945e-05 0.000435331 -0.0016289795 0.0005684867 -7.9665915e-05 0.0014486144 0.0005993831 -0.00056084833 0.00091063214 -0.0015526973 -0.0016634731 0.0011065756 -0.0006569071 -0.00054916524 -0.0016205371 -0.00012874472 -0.0008595858 -0.001423259 -0.0001552578 -0.0015764666 -0.0010273008 0.00063899514 -0.0011053006 -0.0015583825 -0.0006484272 -0.0010279757 -0.0013605101 -0.0009749459 0.00021399884 0.0010133532 -0.0010183475 0.001234919 8.034119e-05 0.0016419397 0.0010476293 -0.00041772626 0.00041909493 -0.0014162911 -0.00091939606 0.0016030332 -0.00025188166 -0.0012071077 -0.00026681347 -0.00026010117 -0.0005417408 0.0016333777 -0.00025571568 0.0014668182 -0.00030576205 0.0010452856 0.00075434963 0.0006116063 -0.0011958934 0.0011462875 -0.0013132034 -0.00033395702 8.8038854e-05 -0.0001982339 -0.001209806 -0.0005224066 -6.6743894e-05 -0.0012726327 0.00032498574 -0.0003454711 -8.777388e-06 0.0008121973 -0.0012698498 0.000963377 0.0005876409 -0.0012875806 0.00077649514 -0.0013413129 0.001400509 0.0007644477 -0.0011241275 0.0015480194 0.0008137948 0.0015742515 -0.00035458367 -0.00045585283 0.0010967093 0.00092361175 0.00040657117 0.00038995946 0.0010019938 -0.0011641468 -0.0005218564 0.00076713314 -0.001278886 0.00066546473 -0.00042129625 0.0006358643 -0.0003191575 0.00043992366 -0.000801637 0.0012699916 -0.00039099652 -0.00081512687 -0.00036702782 0.0003818927 -0.0011805301 0.00059126405 0.00087127317 -0.0015197484 -0.0003917329 -0.0012292996 -0.00022350436 0.001295791 -2.2950828e-05 0.0006303088 0.00010578023 0.0016575741 -0.00032532946 0.0012973933 -0.0015597786 -0.0007502697 0.001640362 -0.00041662675 -0.0009310778 -0.0007802193 -0.0005196746 -0.00070542045 -0.0009310405 0.0006527715 0.001209385 0.001307789 0.00034666382 0.0013407046 0.0012177356 -0.00011973945 0.00044726356 0.0004991226 0.00029492888 0.00035228295 -0.0010906358 0.00043260487 0.0006439017 0.0015357451 -0.0011284697 0.0016508985 0.000990825 0.0013279716 0.0014600346 -0.00046291735 0.0015833024 -0.0012071278 0.0016263814 0.0001366813 -0.00050513516 0.0003021241 -0.0010835547 0.0012118788 0.00011318382 0.0005187568 0.0014124868 -0.0009966643 -0.0012968739 1.658065e-05 0.00052932365 -0.00047592653 0.0002776552 -0.0013893541 -0.001635857 0.00032513554 -0.0014462346 0.001410487 -0.0008172465 -0.0001081008 -0.000607325
  -0.0013679895 -0.00084815646 0.0016425868 0.00023296475 0.00089674 0.0010896333 -0.00096789113 0.00028006695 -0.0002787125 0.0006005672 0.0016256385 -2.8133004e-06 -0.00038085636 0.0005461321 -0.00034816205 0.00021071067 0.00034964588 0.0007948997 -0.00020703887 -0.0013861932 0.0015219193 -3.796004e-05 0.00050017855 -0.0014548276 0.0015067441 0.000327287 -0.0015437735 0.00088005024 0.0014962029 0.00068539975 0.0015448759 0.00038258216 0.00039365736 0.0015817835 -0.00035389198 -0.0014722807 -0.00033018444 -0.0012129771 -0.0014760533 -0.0002332599 -0.0014767178 -0.0012326625 0.0016618859 0.0007767886 -0.0009591342 -0.0007263428 -0.000498256 0.0016135981 0.00086206815 0.0011472234 -0.00022762021 -0.00074484595 -0.0012068757 6.027928e-06 -0.0012391073 -0.00015653211 0.0005363534 -6.0740746e-05 -0.0010876752 -0.00024207364 -6.787285e-05 -0.0007758885 -0.00089052436 0.00082578073 -0.00059233396 -4.3313095e-05 -0.00062889134 -1.7437851e-05 0.0014140309 -0.00043213007 -0.000371633 -0.0003728955 -0.00012142289 -3.069617e-05 0.0002445878 0.0010072708 0.00076864485 0.0008891818 0.0014737897 -0.0010742595 0.0013372236 -0.00046240946 0.001263956 0.0013311651 -0.0011920439 -0.0009433768 -1.2454995e-05 -0.00014240367 -0.0005101657 0.0010934821 0.0009472729 0.0015988722 0.0016409428 0.00064745505 4.8339334e-05 -0.00075355725 0.0016313925 -0.0013012314 -0.0015990961 -0.0011057437 0.0005634994 0.0010329917 0.00034908028 -0.0008887964 2.6856356e-05 0.00056973915 0.0007491137 -0.00014949814 -0.0006673853 0.0009982706 -0.0014072596 0.00040575047 1.8294082e-05 -0.0004378142 0.0009872568 -0.00026632502 0.0007911499 0.0006201532 -0.00019886893 -0.0005753171 0.0005092436 -1.6962398e-05 -0.0012816777 -0.0009540841 -6.826468e-05 -0.001320746 0.001166672 -0.00072622806 0.0015230664 -0.0015801884 0.00042921203 0.0006006626 0.00021139154 -0.0004811141 -0.00038473462 0.0016634061 -0.0010807359 -0.0011105898 -0.001495853 -0.0014994058 0.0010515581 -0.00066750206 -0.0013636146 9.047893e-05 -0.00050012156 0.00059684797 -0.0002027686 -0.00066218176 0.0005174211 0.0010544492 -0.00062914344 0.0007093123 0.0008070215 0.0013742831 -0.00050574425 -0.00026759788 -5.337736e-05 -0.0013135929 0.0014808831 -0.00017443784 -0.00076373084 0.001189169 0.0015581282 -0.0013890775 -0.00076065934 0.0013450684 0.00021032558 -0.0015931544 -0.00077386963 -0.0012022421 0.0011469827 -0.00041104335 0.0006509292 0.0008219018 -0.00045023242 0.0008354959 0.0010995514 -0.0010667223 -0.0007115492 -0.001199161 0.0015430127 0.0015128386 0.0007356638 0.0010205065 0.0005801331 0.0013586127 0.0013277932 0.0010924768 0.0008393255 0.0007639547 0.0008380504 -0.00083144516 -0.00022353935 0.00017925871 -0.00079269457 -0.0008331251 -0.0011923901 -0.00039071566 -0.00012501034 0.00010280752 -7.828287e-06 -0.0011550976 0.0008380648 -0.00058100617 -0.0010976788 -0.0009537945 0.0005125641 -0.00019771478 0.0002678861 -3.4504686e-05 0.0004274 0.00030318668 -0.00046124813 0.00019828082 -0.0006701688 0.0010725075 0.0011867391 -0.00083745416 -0.00098211 0.00059962104 -0.0007291341 0.001310409 0.0002859748 0.00017207231 0.0013200385 -0.0013098039 -0.0005668902 0.00036816596 0.0005643857 0.0011364898 -0.0016085572 -0.00039349534 0.00089702744 -0.00064847706 -0.00032691963 0.00076057896 -0.00024105053 0.0012698312 0.0009849967 -0.00038584258 -0.0011979304 -0.0011776544 0.00041749972 0.001657103 0.000333743 0.0006746871 -0.0014815184 -0.0014348353 -0.00025986787 0.00075825106 -0.00030382897 -0.0009855855 -0.00070310506 -0.001592254 -0.0007870172 0.0005241052 -0.0003369437 0.00096414017 -0.0008002235 0.00067527115 -0.0014719407 0.0012206543 0.00090918515 -0.0015426982 0.00020187622 -0.0015568204 -1.8736338e-05 -0.0010701651 0.0011383024 -0.00031403973 -0.0013914385 -0.0016235622 -0.001586969 0.0006467027 0.0015110334 -0.0008971209 -0.00073348364 0.00091728044 0.0006408508 -0.0011328666 0.00059030415 0.0014846539 0.0011374569 -0.00056994136 0.00059899816 -0.0008195255 -0.00053783285 -0.0014557156 0.00093076576 0.0010809303 0.00031490138 0.0007761324 0.0012177328 -0.00068022055 -0.0015539222 0.00094053516 0.00020271057 -0.0014905847 0.0004183522 0.00014751258
เป็น -0.00023390286 -0.0006353703 0.0005214493 0.00051667826 -0.0013936844 0.00031020484 -0.0010110473 -0.0012047301 -0.0011117688 0.0009153629 0.0011485742 0.00078056566 0.0016654527 0.00070462073 0.0008073933 0.00030988772 -0.0010487584 0.00088490697 0.0013731337 0.00056171935 -0.0015334494 -0.0014970219 0.0014058939 0.0012254275 0.0011116021 0.0015828595 0.00072773796 0.0015706246 0.00048933935 0.0007626913 -0.0013058428 0.00013346877 0.0011314964 -0.000678454 -0.00014653028 0.00095630786 0.00042551805 0.0002562429 -0.0016207459 -0.0015883151 0.0015506044 -0.0009191536 -0.0016505929 0.001462646 0.00065042864 0.00042263884 -0.00035601927 0.0008615582 0.0011266805 0.0002495292 0.0004229454 -5.168439e-05 0.0003322941 0.001147758 0.00088517106 -0.00053170254 0.0006150998 0.0016564827 -0.00080147915 -0.00062697806 0.0014384047 0.00056546595 0.00082668563 0.0010981078 -0.0001336679 -0.0012188362 0.0010104467 8.304361e-05 8.8114095e-05 0.00039597138 -0.00011783156 -0.00044343845 -0.0013276521 -0.0007075408 0.00061877776 0.00078808994 -5.0549093e-05 0.00048724332 -0.00092842063 -0.0010989138 0.0014168433 0.0011818608 -0.0012270218 0.001495987 -0.00096519146 -0.00066959916 0.0013860235 0.0001703635 -0.0014974094 -0.0011240547 5.5344157e-05 0.001447902 -0.0010964824 -2.1126314e-05 4.2570882e-05 0.00032644294 -0.0011700495 0.00021278425 -0.00021645629 0.0010766088 -0.0011098137 -0.0015398077 -0.001110131 0.0014995418 0.0009739942 -0.00059610413 0.00045494543 -0.0011471111 0.00092638365 -0.00050039333 -0.0012696562 -0.0010521956 0.00063730904 -0.0002669499 0.00091995555 0.00012644645 -0.0013190482 0.00038765222 -0.00082959246 -0.0016522924 0.0013507863 0.0010413763 0.0009859143 0.0014998575 -0.0012591549 0.00019672752 -0.0014541824 -0.00061462756 0.0007432291 0.0010622165 0.0011546253 0.0009896627 -0.00054951163 0.0014448497 -0.0014601919 0.0011830667 0.00033033028 -0.0009633302 -0.0010160521 -0.0010403417 -0.0011439668 -0.0010458579 0.0010382513 0.00041226335 -0.0014061779 0.00056681404 -0.0012058001 0.00010666534 -0.0014706288 -0.0002892345 0.00030374565 0.0009025207 0.00027752775 0.0016309726 0.00026312497 0.0004131943 -0.00036626117 -0.00081192324 -0.0010415434 0.00092885754 0.0014841937 0.0015296141 0.00011839545 0.001209104 -0.0014068251 -0.0009330724 0.001076571 0.0002686949 0.00035687062 0.0004654104 0.00048556647 -0.0012105983 -0.0009897047 -0.0008448312 -1.736893e-05 -0.0011348968 0.0009190397 0.0013513472 -0.0008209835 -0.0004476633 0.00045201823 -0.00015608127 0.001205568 -0.0013105028 0.000818019 -0.00093667296 0.0007659354 -0.00067469507 0.00053521845 -0.0008102625 0.0012078704 0.00074875413 -0.0015572564 0.0012372399 0.00052840443 0.0014061275 0.0003924391 -0.0011263121 -0.00080328085 -0.0003794317 0.00064910616 -0.00032085806 0.00012741749 0.0005386061 0.0010810548 0.0015681871 -0.0012241941 0.0013424552 -0.0002702144 0.001662613 -0.0016100957 0.0016015595 -0.0016474853 -0.0011184342 0.00094766857 -0.0015917204 -0.0012760435 8.001559e-05 0.001049349 0.0016604109 0.0013027563 0.00050512725 0.00037847954 0.0005769343 0.000504308 0.001579591 -0.0011161561 -0.00089410454 0.0015108417 0.0002784108 -0.0010550757 -0.00051564624 -0.0010782563 -0.00096955284 -0.00070851843 -9.942589e-05 -0.0012525588 -0.0013034708 0.0009671668 -0.00083808874 0.00078780047 -0.00058506045 0.00032210056 0.001332401 -0.0004766385 -0.0015637893 -0.0013080642 -0.00044927554 -0.0005973389 0.0011324411 -0.0016486848 -0.00027980536 -0.0010110673 9.4748735e-05 0.0010959434 -0.0011906492 -0.00087527494 0.00019810878 0.0014152515 -0.00053053617 -0.0012671332 0.0008019506 0.00030896696 -0.000696351 -0.0008733539 0.0016131852 -0.001286771 0.0001612017 -0.00019483072 0.0008297309 0.0015726208 0.0002198427 -0.0015696131 -0.0007143062 0.00018279166 -0.00035846478 -0.001082672 0.0001616566 0.00022773312 0.00071273796 0.000489519 0.00023971192 0.00049404154 -0.0013231784 0.0012127906 -0.0015833945 -0.0014404763 0.00011694522 -0.001577247 -0.00042692837 0.00043693403 0.0015077861 3.90046e-05 -0.00037390995 -0.0014499554 -0.0011440037 -0.001137307 6.40831e-05 -0.00021914335 6.197072e-05
ไป 0.0008642829 0.00091726874 -0.00042298893 -0.00046378345 -0.0015538335 0.0008923804 0.00013958257 -0.0002685765 -0.0012808706 0.0009728318 -0.0007766818 -0.0006500154 0.00069080683 -0.0005317496 0.0005082083 -0.0003303563 -0.0013642346 -0.00088397047 0.00022484585 0.0016126372 0.00012582052 0.00055670826 0.0001552663 6.106805e-05 0.00014964731 -0.0012300726 0.001032907 -0.0015075197 -0.0010780222 -0.00050749455 0.0013177674 -0.0004992613 -0.0010402892 0.0012893461 -0.001219471 -0.0005360385 -0.0016164026 0.00047867984 -0.0016659389 0.0007157672 -0.0016317326 -0.00090901245 -0.0014324988 0.0004527846 0.00071879965 -0.001638377 0.0011139817 0.0011061413 0.00058794743 0.00015853536 -0.0011495115 -0.0006080969 0.0015546441 -0.0012721339 -3.368902e-05 0.00027062057 0.0005307331 -0.0005596392 -2.982214e-05 0.0005965789 -0.00137971 -0.00057898456 -0.00059910194 -0.0006988763 -0.00074918824 0.0014759466 0.0010165533 0.0015463773 -0.00074771914 -0.00021673387 0.0015937502 -0.0013223785 -0.00067976007 -0.0014760754 -0.00022393072 -0.0015327117 -0.001355681 -0.00056112325 0.0004049625 0.0006349709 0.0010971337 -0.0008539025 -0.0016157187 2.6353955e-05 0.0009792281 0.0015569563 0.0015387364 0.0011029263 9.477077e-06 0.0009494675 -0.0012703832 -0.0011844201 0.0002168192 -0.0011093202 -0.0012100737 0.0009863586 -0.001612269 0.00066006964 0.0015063762 0.00040169133 0.00084150577 0.0014501268 -0.0009803922 0.0011921088 0.0015369785 -0.0015048869 3.2331405e-05 -0.001180823 0.00023412258 0.00030149706 -0.00016027111 0.00016275093 0.00045652653 -0.0002672307 0.00076753984 -0.00041524894 -0.0006473644 -0.00031315107 -0.0009941536 -0.0009116399 -0.0008329846 -0.0014655907 -0.0011205366 0.00138345 -0.0008826508 0.000103223436 4.84294e-05 0.0015507172 -0.0011524166 -0.0009671242 0.0005593563 -0.00025792245 -0.0006589044 0.000814237 -0.00081109646 0.0014610718 0.00072249374 -0.00080703583 -0.0004613295 -8.775529e-06 0.0003377315 -0.0014652343 -0.00068657467 -0.001543602 -0.0009585622 -0.0012956114 -0.0015673459 0.0014282585 -0.0010370002 -0.00065878144 6.6049647e-06 -0.00093912275 0.0008959817 0.0014178053 0.0012601014 -0.00023889904 0.00030509074 -0.0012331778 -0.0014483103 0.001074847 0.0011704451 -0.00056063273 -0.00082663924 -0.0008855412 -0.0009186248 0.00033674095 -0.0003691338 -0.0005430288 -0.00065391976 0.00078813307 0.00074013 -0.0016215687 8.2321935e-07 0.0004426845 -0.00022537533 -0.00056993484 -0.00065011013 -0.0009807211 4.2179683e-05 -0.0016063333 0.0003904941 0.0001116347 0.0002069247 0.0008824863 -0.0011107783 -0.00054308056 -0.0005638047 -0.0011964499 0.0014193795 0.00038626217 0.0004365042 -0.00046031855 0.001239453 0.00030696354 -0.0015426098 0.00021397903 -0.0005645408 -0.00016065163 0.0012441835 0.0007461077 -0.0014916041 0.0011425617 0.001523225 -0.00026821534 -0.0012692603 -0.00041484018 0.00017271834 -0.0016178972 -0.0014203616 0.0001799548 -1.1473311e-05 -0.00028798406 -9.0176174e-05 -0.0015295442 0.00060355966 0.0015457484 6.052489e-05 0.0015869976 -0.00039182496 0.0015959478 -0.000413478 -0.000956429 0.0016476323 -0.00017454078 -0.0012574873 -0.00032526965 -0.00053723407 -1.2724861e-05 0.0006833692 0.0012322031 0.0012147309 0.0012133853 0.00029768102 0.00026428138 0.0009376263 -0.0013848789 0.0005022192 -0.0013657308 0.0006591811 -0.0006348568 0.0004361644 -0.0010565488 0.00013599507 -0.0012646359 0.0005848002 0.0002597971 0.0005564389 0.00028372052 0.00086595456 -0.00042845527 -0.00053594855 0.0007057774 0.00019626741 -0.0005585898 -0.00057798845 -0.0009510862 7.625066e-05 -0.0012437837 0.00018083196 0.0015788586 -0.001040381 -0.0005535654 -0.0013861476 -0.00024486732 -0.0013293544 0.0016601356 -0.0014770488 -0.00045112192 0.0003175848 -0.0015383237 0.00012424309 -0.000845155 8.97423e-05 0.00025639072 0.00046333866 0.00025143853 0.0013358718 0.0010688675 -0.0004056135 0.0003883683 0.0014517439 0.0010195037 -0.0016250444 0.0007846802 0.0009302314 0.0009772249 0.001301113 0.00043195623 -0.0006030233 -0.0007974172 0.0010521784 -4.083168e-05 -0.0012500207 0.00080056454 0.0005461263 0.0015131726 7.861117e-05 -0.00018330402 0.00032125803 0.0015501685
และ -0.00050258957 0.0014280664 -0.00021848666 -0.00029801045 -0.0015514882 -1.7862265e-05 -0.0013443433 0.00025668414 -0.0002497985 0.0004168498 0.0011464849 0.0011579501 -0.0016124744 0.0008019533 -0.00017710925 0.0014064541 0.0005576793 0.0007737705 0.00034902 -0.00038885593 0.0015605771 -0.00029152993 -0.0003695868 -0.0006971731 -0.00041140665 -0.0007770524 -0.00015213578 0.0015166538 -0.0007867186 -0.0012094094 -0.0007003217 -0.0008641049 0.0013247541 -0.0013398491 -0.0016587258 0.0002696517 -0.0009618466 0.0012908861 0.0010283731 0.00014432723 0.0006209142 -0.0009144429 0.00036822556 -0.0008629257 -0.0001996087 0.0010615406 -3.8972106e-05 0.0015149052 0.001599218 0.0013836361 0.0008564288 0.0001408392 0.0001322148 0.0016295455 -0.0015224044 -0.0010047045 0.0015052052 0.0012199321 0.0013135346 0.0011928747 -0.0016054651 0.00038137592 0.0015824947 -0.0009796704 -0.0016454487 -0.0006883623 -0.0014521775 -0.0016290935 0.000508112 -0.0011977758 -0.0011692038 -0.0014616696 -0.0004009551 -0.001431753 -0.0002689053 -0.000777026 0.0015624041 0.000999173 -0.00022526723 -0.0013883122 0.0011332218 0.00033289765 0.0015938049 0.0005043691 -0.00072292244 0.0015293884 0.00022446427 -0.0001737553 -0.00093452306 -0.0014165621 -0.0016466462 -0.0016094496 0.0012471137 0.0013521063 0.0008273445 0.0012233588 0.00012527172 0.001617306 -0.0008064948 0.00026262616 -0.00094394415 0.00063723343 0.0004033772 -0.0008849445 -0.00084162527 0.0016109447 -0.0015300981 -0.00062739756 -0.00087689346 -0.00014248105 0.0005537865 8.373372e-05 -0.00071519375 0.0010014868 0.0014482212 -0.0007109502 -0.0003869147 -0.0012898206 -0.0004862974 -0.0014981139 0.0008543073 0.0005299772 0.0008662622 -0.0013776065 -0.0007339346 0.001120418 0.0011428264 -0.0010186033 -0.0005490342 -0.0015442062 -0.00047786857 0.001288323 -0.0012344052 -0.0010261023 -0.00073725695 0.00039747587 -0.0011896784 0.000822779 0.0013476483 -8.255251e-05 -0.00081864715 0.00037784377 0.0005730592 0.00052877073 0.0005279749 0.0006470308 0.0011494627 0.0014994335 -0.0011140013 0.0009342332 0.0014249631 -0.00041405883 -0.000679959 -0.001203507 -0.0016469243 0.0016036099 -5.2994616e-05 0.000534845 0.001474846 0.00050744304 0.0005298078 0.0016508859 0.00023475067 -0.0011365126 -0.0014420244 0.0012795457 -0.00075883773 0.0008815012 0.0013435083 -0.0012367893 -0.0012320771 0.00023137029 -0.0009697014 0.0009471306 -0.0015567776 0.0012201926 0.0010297743 -0.00044316685 0.0014562156 -0.0012880112 -0.0014414261 0.00035949738 0.0004484047 -0.0008694863 -0.001403048 0.00046169639 0.0016017582 -0.0011586305 -0.001196707 0.00014011552 0.0011971409 0.001463662 0.0014144095 -0.001201454 0.001182868 0.00010436042 -8.537237e-07 -0.001192138 -0.0015249391 -0.0009521971 -0.0012616502 0.0010374193 0.00015099459 -0.0013626544 -0.0008247475 0.0007546212 2.5670555e-05 -0.0004052911 0.0011387425 0.0011918797 -0.0006923695 -0.0015532839 -0.00023219376 9.3752096e-05 -0.0010024232 -0.0011909822 0.0015416787 -0.0014342914 2.384016e-05 -0.0006586062 -0.0006759924 0.0013615013 0.0007056526 0.00088807766 -0.00050775846 0.000107108586 -0.0009753578 0.0008410994 -0.0011510057 -0.0013879224 -0.001368282 0.0011144364 -0.0012786562 0.0002497784 0.00035747688 -0.00021052755 -0.0001073369 0.00021044022 -0.00043576775 -0.00084029743 -0.0013005167 -0.0013380811 -0.0011840562 0.0004955798 -0.0012672978 0.0011777201 -0.00025942377 0.0016465458 0.0011661181 0.00039142594 -0.00024331329 0.0011041906 -0.0010568417 0.00048610312 -0.0014858191 0.0010161429 0.00047251003 -0.0008010539 0.00052419456 -0.0010109239 0.0013972727 -0.001112167 -0.0007387692 7.1258924e-05 0.00031956413 0.0015704313 0.001122578 -0.0013667012 0.0006757864 -0.0014634077 -0.00017423747 -0.0008924101 -0.00037307496 0.0014433549 0.0008308025 -0.00023611818 -0.00062607863 4.4224107e-05 0.0009176359 0.0015262995 0.00030245533 -0.0005647281 -0.001389997 -0.0016167535 -0.0014891424 -0.0004744287 -0.0013102242 0.0006262358 0.0012202048 -0.00082217157 0.00030794682 -0.000573151 -0.00029854637 0.00074415474 -0.00033114123 -0.0003012658 -0.0011950975 -0.00093365915 0.00048679145 -0.0012303161
ให้ -0.0008271749 0.0010996051 -0.00076210045 0.0008762838 -0.0013147879 9.2132e-05 -0.0011239666 0.0013097847 0.0004407309 0.00014556159 -0.0007267139 -0.0009710685 -0.0006883054 -0.0010508527 0.0010910204 -0.0015010226 -1.6069873e-05 0.0016363165 0.00057243416 0.0006897254 -0.00083006214 -0.000656738 -0.00023785853 0.0013433624 0.0011109473 -0.0011843115 -0.0010710438 0.0009555094 0.0013751413 -0.0008219769 -0.000562403 -0.0004932462 -0.00012761891 0.0016468632 0.0008848875 0.000785296 0.0014499823 -0.0014702948 0.0016318004 -0.0004560266 -0.00036410973 0.0008850039 -0.0012233419 -4.4500826e-05 -0.00028411538 0.0012819347 -0.00055238506 -0.00044267016 0.00015362572 0.00088993856 0.0011559137 -0.0012232699 -0.0011344004 0.00069146167 2.6679741e-05 -0.0002193119 0.0011770542 0.0004980032 0.001222542 0.0007107267 0.0015563382 -0.0016563515 -2.1803817e-05 -5.9634818e-05 0.00072175195 -0.00079924567 -0.0012375758 -0.0001336466 0.00028544423 0.0006459075 0.001110266 -0.000738972 -0.0007609044 0.0014413146 -0.0006115999 -0.0009465716 -0.0009488589 0.00059048686 -1.0914408e-05 0.0003956105 -0.00097176014 -0.0006264329 -0.0008783171 0.00095899624 -0.0015346869 -0.0003397807 0.0014885692 0.00024108755 -0.0009239448 0.0009918663 0.0001146271 -0.00042438263 -0.0007353056 0.0016002499 0.0005024104 -0.0008035875 -0.00074576045 0.0011432691 0.0013031644 0.0007936396 -0.001434478 -0.0011018934 -0.000355563 0.00032037648 0.00066868967 -0.001227397 0.0013534126 -0.0005346703 -0.00020497694 -0.00017503086 0.0016205859 -0.0016346549 -0.00074221217 -0.00023594273 0.00055364566 -0.0013322731 -0.0007372335 -0.001257713 -0.0016493222 0.0005238269 0.0006410476 -0.00065137364 0.00057176466 -0.00019005728 0.00041240035 0.0010754201 -0.00097649754 0.001209369 1.7196995e-05 -0.0009079467 0.0011085409 0.0016544766 -0.0015961111 -0.00053969555 0.0015158398 -0.0012648056 0.0011942424 0.001275605 -0.00035346314 0.0014333712 0.001545637 -0.0010338908 -0.0015273419 0.00085785135 0.0007100693 0.0009789735 0.0002846398 0.001600791 0.0012544976 0.0016390271 0.0010030861 0.0009889136 0.00035197096 0.00021448598 -0.00050180237 0.000962957 -0.00048668284 0.00039053446 -0.00067013083 -0.0005130667 0.00056364934 -0.0006810141 -0.0009689773 0.00014652532 -0.00092063524 4.1089632e-05 -0.00017272757 -0.00028183984 0.0008656495 0.0009945324 0.0015080441 -0.0011097598 0.00018788986 -0.0006772818 0.0003514309 0.00081667275 -0.001542309 -0.0005792714 -0.0012756803 -0.00013256138 0.00050070515 0.00038782507 0.00068567885 0.0016398935 0.0010818463 -0.00021043904 -7.1508715e-05 0.001390203 0.0013945354 -0.00032662423 -0.0013519367 -2.135426e-06 0.0008905725 -0.00084041076 -0.00063800527 2.2606795e-05 0.0016509831 -0.0004159144 0.0011687665 0.0016077202 0.00013161062 -0.0012716305 -0.00036111264 0.0005386274 0.0012474996 -0.0010322144 -0.000119738164 -0.000262886 0.0014596102 -0.00079066167 0.00020349208 0.0016654966 -0.0011493103 0.001346262 0.00027920728 0.0010235405 -0.00039183506 -0.0005670371 0.000109753266 0.00079744816 0.00010993313 0.0008635185 0.0011533018 0.00027411862 -0.0013684925 -0.00091870385 -0.001296651 -0.00031586917 -0.0014255942 0.0004252317 0.00088733097 -0.0003478741 -0.00032416033 -0.00038448648 0.0016055182 -0.0013869667 -7.199136e-05 0.00075739133 -0.00019297012 -0.0007078738 -0.0008436524 -0.000584496 -0.00041334223 8.7446475e-05 0.00056621234 0.0006449662 0.0015447382 -0.00030809818 0.001518228 -0.00059680163 -0.0006654594 0.0006298858 -0.0001599306 0.0015465046 0.0007407129 0.0012507063 -0.0004858977 5.8572517e-05 -0.0007299481 0.0016474363 -9.163513e-05 -0.0013344745 0.0002765123 0.0011595504 -0.0013391164 0.000258524 -0.00044419704 0.0002691631 0.0009892115 -2.1743706e-05 -0.00018991035 -0.0015762461 -0.00022277558 -0.0005622677 -0.0011853944 -0.0016011144 0.0003236794 -0.0014957419 0.00042870047 0.0006985588 4.7598238e-05 0.0012310236 0.0016015415 -0.00051687716 0.00046923163 -0.00057521934 -2.3197177e-05 0.00079299323 -0.0009050955 -0.00020958796 0.0010695674 0.0011976025 -0.00013545543 -0.00081820093 0.00044404677 -0.0012826206 0.0007091273 -0.0011260412 0.0015452344 -0.001191408
การ 0.00070312445 0.0014724194 0.0015176655 1.1880605e-05 0.0004652985 0.0010537965 -0.00028379317 -0.00060668733 0.00026598206 0.0011990914 -0.00057913165 -0.0005717732 -0.00138567 -0.0008181214 -0.001564278 -0.0013090516 -0.0003761902 -0.000761239 0.0008018188 -0.00096755417 0.000330607 -0.00063394505 -0.0013956317 -0.0011869881 -0.00016164873 0.0003869172 0.00020658471 0.00092742423 -3.276773e-05 -0.0008847147 -0.0011624044 9.339863e-05 -0.0006354228 0.000272302 -0.0016636255 -0.0014147809 -0.001331402 -0.0010610957 -0.00034604 -0.00030505075 -0.0013112425 -0.0003018858 0.00068424566 -0.0008017162 0.00064816105 -0.0016616891 0.0007416402 0.0008803183 -6.62918e-05 0.00038435022 0.0016561025 -0.001325181 0.00048228668 -1.0479106e-05 0.000437208 0.00023192915 -0.0015538246 -0.00016533367 -0.0007541403 0.0005661662 0.0013654833 -0.0014000441 -0.0004913933 0.00032324914 -0.0009564489 0.00075078855 0.0003474411 -0.0015545351 -0.0013856045 6.520926e-05 0.00020660847 0.00057030574 -0.00042455705 0.00043462715 0.0013677848 4.8399874e-05 0.0008085861 -0.0012121848 0.0015919637 -0.0007789546 -0.0013335929 0.0012882836 -0.00016061908 -0.00061359 0.0014701786 0.0014059911 0.00077363045 0.0002574033 5.0146104e-05 -0.00033607535 -0.001009565 0.00020558487 -0.0012414264 -0.0012424653 0.0016236325 0.00049970613 0.0008712021 1.4574065e-06 -0.00030455817 0.0008528863 0.00042449264 0.0010895622 -0.00017969549 -0.0003831748 0.0016151972 -0.00071320153 0.0012698891 0.0003654569 0.0016567312 -0.001543114 0.00038433418 -0.0014926549 8.521978e-05 -0.0013837572 -0.0013255816 -0.0010704849 0.0004232275 -0.0007150445 -0.0013147885 0.00013818394 0.0012979845 -0.00028266292 0.0013430105 -0.00080942234 -0.0009856361 -0.0013604844 0.0013262914 0.0008015129 -0.0009125638 -0.00014492846 0.001022861 -0.0008396894 0.00040255307 0.0009677606 -0.0013518592 0.001332554 -1.5186454e-05 -0.0014656745 -0.00011815341 0.0014392402 0.00012538487 -0.0013132856 -0.00082597986 0.0010601939 -0.0009175666 -0.0013183301 0.0012233485 0.00022452505 0.00087690493 0.00053711893 0.00056175457 -0.0016485164 -0.001572898 0.000374193 -0.0015515888 0.00097380363 -0.0016298174 -0.00024170062 -0.0006168963 -0.0006073572 -5.1895335e-05 0.00040812517 0.0006897634 0.0008988342 -0.00064178725 0.00025029722 0.0013364977 -3.1868243e-05 0.00096141914 0.00092157273 -0.0005555592 -0.0014837423 0.0007046844 -0.001302743 -0.0013445114 -0.0003804407 -0.0013741163 0.0015332259 0.0012449693 -0.0007386583 0.0009045579 0.0015622503 -0.0011507715 -0.00079257996 -0.00020235233 -0.0005442162 -0.0011107024 0.0009938454 1.1229162e-06 8.371132e-06 0.0004106531 7.9249505e-05 -0.0015110136 -0.0015790154 0.0013009242 -0.0010739422 -0.0010590241 -0.0010457125 -4.724206e-05 -0.00091091526 0.00090973557 -0.00035060334 0.0010519034 0.0011803241 -0.0008452254 0.00032091181 0.00019962738 -0.0014014737 -0.0002484763 -0.00023144476 -0.0006826179 -0.0010416479 0.00092436996 -0.00061476056 -0.0003091025 0.0007588635 -0.001310306 -0.0009354257 0.0010661564 -0.0011208603 0.0012918501 0.0016504879 0.00078223244 -0.0006613781 0.0013953855 -0.0010540144 -4.8337733e-05 -0.0011320675 -0.0015991417 -0.0014646408 -0.0014613591 0.00013900053 -0.0008640738 0.0012266123 0.0014249528 -0.00018768305 0.00063798425 0.0011626638 0.0011439665 0.0015628529 -0.0015816133 -0.0008218846 5.6892346e-05 -0.0015822181 3.7518126e-05 0.00057564693 -0.00020643717 0.0015951401 0.0015370538 -0.0012756384 0.0013422023 -0.00030153137 -0.001110202 -0.00069354125 -0.001072492 -0.000764032 -0.00034537603 0.0016352038 -0.0014417554 -0.00015736504 0.00029590106 0.000434314 0.0013141986 -0.0006277519 0.0015085421 -0.0007560862 0.0014245071 0.0008806844 4.1623072e-05 0.00020136224 -0.000837392 -0.0007973946 9.361315e-06 -0.00072278385 -0.0003710804 -0.0016622873 -0.0004734611 -0.0011324864 -0.0009911478 -0.0015744669 0.001346255 0.0005391108 0.0009827624 -0.00023042297 -0.0002842203 -0.000841953 -0.0004034216 -0.0012507816 0.00021564336 -0.00039290218 -0.0010212967 0.0016054824 -0.00031523686 0.0006774307 0.00036588442 -0.00011593203 0.001009496 -0.0008721556 0.00052426493 -0.0010828892
ของ 0.0015361162 0.0015849798 -2.6549415e-05 0.0009347297 -5.1766834e-05 0.00043738887 -0.00029966948 0.001277206 -0.000405493 -0.0012476217 5.6918867e-05 0.000925076 0.0006856795 0.0007606676 0.0011597166 0.0015770203 -0.0011307776 0.0005457367 -0.00094816624 0.001606878 -0.00058481755 -0.0012400732 0.0005958565 -0.0010913974 -0.00056192034 0.0001448337 0.00011904585 0.001426863 0.0008983327 0.00075436913 -0.0014553242 0.0010201801 0.00032579407 -0.0015222189 -0.001315853 -0.00090560457 -0.0004449616 -0.00092691265 0.0016381501 0.00032119855 0.001090252 -0.0011509821 0.0014156323 0.00073163427 0.00058608677 0.0014417726 -0.0015369182 -0.00025945713 -0.000664776 -0.0010328556 -0.00056888943 -0.00081496855 0.00081147347 -0.0007919583 -0.0008595878 0.0013033007 -0.00055537344 -0.0004241574 -0.0007520639 -0.0014759201 -0.0015337359 -4.964005e-05 -0.00055243226 -0.0008759823 -0.0014141838 0.0005489007 -0.0006454765 0.0012579288 -0.0003256946 -0.0010292401 -1.9917445e-05 0.0013640404 0.0008493232 -0.0011885177 -0.00034572725 0.0012508286 -0.001662213 -0.00032672603 0.0012724728 -0.00013200309 -0.00096132007 -0.001654238 0.0006531775 -0.0015884546 -0.0013875398 -8.240409e-05 0.00023297749 -0.0013244246 0.00054263277 0.0012511222 0.00080940046 -0.00067354017 0.00078496936 -0.00083510665 -0.00067121896 -0.0008389793 0.00079957896 0.0016654198 0.0011991692 -0.0013408317 0.000927512 -0.0011539671 0.00073318515 -0.0005043852 0.001359843 -0.00087856053 0.00042304787 -0.00037263054 -0.00030069926 -0.0014373076 -0.0006124521 -0.00091058266 -0.0013734084 0.0011968416 0.00024075463 0.00042573622 -0.0013095804 -0.0013461121 -0.00090375583 -0.0006598366 -0.00083014305 -0.00074425933 0.0013046958 -0.0010175784 -0.0016134515 0.00087398454 0.0005147361 0.0007926898 -0.00069612067 0.00029627315 0.00095281063 0.001253809 0.00054513477 8.692593e-05 8.081359e-05 -0.0010963395 -0.00094901235 -0.0011422808 -0.0005938444 0.0009738684 -0.00037077852 -0.000712098 -0.0015903726 -0.00046247052 0.0011195161 9.983884e-05 -0.0013256605 0.0007636916 -0.0006849898 -0.001161888 0.00034081817 -0.0007737101 -0.0010606974 0.0010825084 -0.00015799601 -0.0013590094 0.00049509166 -0.0004451666 0.00045514238 -0.00092962245 0.00031560348 -0.00022828054 4.5543737e-05 0.0014988118 -0.00069691555 0.0011221142 -0.0012287877 -0.0013334487 0.0010401913 -0.0010758692 0.00038910267 0.001238259 0.001641886 0.0015600796 -0.001357857 -0.00056453503 0.0001575894 -0.00024587565 -0.00042927178 -4.9594728e-05 -0.00047814412 0.00063800236 -0.00097031356 0.0012184946 0.00077709235 -0.001447576 0.0015403212 0.0009711917 -0.0015006143 0.00093992753 -0.0014824582 -0.00045262667 -0.0010500865 0.0009494667 0.0012959959 -0.00010837065 0.00073318684 1.0187412e-05 0.00019346025 -4.4753608e-05 0.0010345117 0.00036747573 0.00033235236 0.0015849924 -0.00027641514 3.602034e-05 0.0014011197 0.0015841242 0.0007179967 0.0014238291 -0.0010586194 0.0001688383 -0.0014619929 -0.0010208356 -0.0009654837 -0.0006996412 -0.00046926402 -7.054966e-05 -0.0012649365 0.0011519647 0.0011011867 0.0005395531 -0.0011395874 -0.0012049611 0.00027134363 -0.0013152234 0.0001951253 -0.00031584292 -0.0008039559 -0.0005554905 -0.0015381254 -0.0008997083 -0.0011026387 -0.00041367946 0.0014854491 -0.0016659123 0.0013339873 -0.001394993 0.00012722301 -0.0012046698 0.0011846966 -0.0012689895 0.0012591619 -0.0014482959 -0.0014429147 -2.9287665e-05 0.0001725273 -0.0007583713 -0.00037149878 0.00095173926 -0.00013832544 -0.00041565 -0.0006143325 -0.0006517099 0.0008934979 0.00065480225 0.0010625068 0.00041912164 -0.00013719512 -0.00072591 0.00071387726 -0.0014285897 -0.0005839871 -0.000295648 -0.00039166596 -0.0008809035 0.0009575013 0.0013167517 0.00018150866 -0.0016387295 0.0013773465 0.0010412016 -0.00042664754 3.8810795e-05 -0.00020524615 -0.000693623 0.00078329555 0.0014672795 0.0015531098 -0.000430193 -0.0012687334 -0.001214416 0.0010547674 0.000504689 -0.00082610844 -0.0006367114 0.0015152853 0.00021235614 0.0007932976 -0.0010394478 -0.0015309935 0.0010284191 6.9835936e-05 6.7509773e-06 0.00147603 -0.00059978577 -0.000804514 0.0011551683 -0.0014809436 -0.0015748389
จะ 0.00086962996 0.00022673137 0.00086097105 -0.0013341458 -0.00036687512 -8.545996e-05 -0.0013583573 -0.00088334695 -0.0005998535 -0.0004709962 -0.0014123028 -0.0013895307 -0.00065974065 -0.0010105389 0.00072954275 -0.00019083482 0.00050214975 0.0010211143 0.00035730068 -0.0013869745 0.0015582035 0.0001213181 -0.0005129145 0.0015076619 0.0011425923 0.0013976091 0.0016177647 0.00014366914 -0.00047706178 -0.0012728297 -0.001165371 0.0015858541 -0.000529702 0.00040714678 0.000427104 0.0013643389 -0.0008410949 -0.001052797 0.001181194 -0.000105304585 -4.5267592e-05 0.0014721833 0.0015699122 0.0008480675 -0.00079343806 -0.0001013494 -0.00053749647 0.0012671686 0.0007451733 0.00096893974 0.0011797607 -0.0009025708 0.0016043823 -0.0006286379 0.001128032 0.00047987743 0.00086200703 -0.00021958002 0.0005354463 -0.0006769018 -0.0002271893 0.0011120883 2.4537956e-05 -0.0014618263 -0.00047050923 -0.00044224033 -0.00139097 0.0015255323 -0.00021409239 0.00042050157 0.00049961783 -0.0009878974 0.0002331799 0.0010480158 -0.0016254195 0.00025064664 -0.0003820233 0.0010374696 -0.0010853646 0.0007402844 -0.0001939744 0.0006729501 0.00010609144 0.00029842847 -0.0012569265 -0.0009525856 -0.00088443246 0.0013993632 0.0007377365 0.00015800651 0.0015707251 -0.0011148392 0.0014402786 -0.0009710582 0.00041471896 0.00037449235 -4.7812187e-05 -0.0010736358 -0.00086620846 -0.0014506755 0.0011954828 -3.6194862e-05 0.0005547592 0.0012173224 -0.0011804734 -0.00024315728 -2.4633422e-05 0.0016268976 -0.0010525292 -0.0009221348 -0.0010723905 -0.00027875663 0.0011337118 -0.001015238 0.00017622931 0.0014123289 0.0016560712 -0.00061807304 0.0012429672 -0.0013945203 0.00056133827 0.0008655023 0.0011118753 -0.0014230054 0.00091209146 1.6619108e-05 -0.0013359371 0.0015947992 -0.00032289742 -0.0006692055 0.00017824715 -5.6754852e-05 0.00044487388 0.0013904975 0.0015784646 7.9108555e-05 3.288977e-05 0.00097011495 0.0014597593 0.0009221818 0.0011107001 -0.0006593995 -0.0007082346 0.0007010954 0.0015928751 -0.0003790584 0.00024056074 -0.00044382332 -0.00023008979 0.0010795579 -0.0015377362 -0.0012475224 -0.0013534504 0.00031750373 0.00011979541 0.0008512433 -0.0015340211 7.62835e-05 -0.0003075157 -0.0002650828 0.0014317902 0.00030979363 -0.00037756684 0.0005839024 -0.0012755247 0.00027998348 0.0010401347 0.0002263403 -0.001336638 -0.00016250218 -0.0006540268 0.00044582287 0.001184535 0.0006247242 -0.0014603187 5.135813e-05 0.0013891207 -0.00018421878 -5.5890232e-05 -0.00048205286 0.0013597452 0.0008774977 -0.00024907998 0.0012642661 0.0011249686 0.0002830145 0.00048435866 0.0007760233 -0.00034061598 -1.620781e-05 0.0011479662 -0.0014629633 0.00088219356 0.0004217934 0.0012126409 -9.45311e-05 -0.0014011295 -0.0007912859 -0.00041324596 -0.0011468887 -0.00049495226 -0.0011213436 0.00095283234 0.0008262548 0.00070479163 -0.00088550407 -0.0013722322 0.0015390198 0.0003843556 0.0011271079 0.0010810519 0.00042702697 -0.00011545252 -0.0016171471 -0.00089793425 0.0013626445 -0.0014327064 -0.0012282345 -0.0014821637 0.0006487394 0.0014551311 -6.7247296e-05 0.0010457376 0.0015566634 -0.0011424375 0.0014937505 -0.001524299 -0.0007915741 -2.8210614e-05 0.00118533 -0.00049548247 -0.0005739925 0.00079162617 0.00094138907 -0.0011960972 -0.0010057463 -9.70972e-05 0.00015951581 0.0007655166 0.0013188792 -0.00050621555 0.00034460452 -0.00011563278 0.00078949885 0.0010038442 0.0015920635 -0.00068698684 -0.00011581435 9.037228e-05 -0.00020937965 -1.7904074e-05 5.362469e-05 0.0010829417 0.0011535838 -0.0003282986 0.00018125301 -0.0011591589 -0.0009920159 0.0010818762 0.00027736285 -0.00068191177 0.0015772164 -0.00049818197 0.0006943811 0.0011393795 0.00017211518 0.00014241878 0.0015669758 -0.00025816847 0.0016284694 0.0015362073 0.0009701925 -0.0013641972 -0.00042046956 -0.0009020572 0.00056807004 0.0008603989 -0.0003851229 0.0014922599 0.0007374624 -0.0014444116 -0.00040135212 0.0013506536 0.00088550634 0.00032330374 -8.0620506e-05 -0.00046731753 -0.0009985445 -5.265676e-06 -0.0013570491 -0.0007732494 0.00056196016 0.0005087814 -0.0008206642 0.0013213715 0.0010778656 0.0014842087 0.000797123 0.00016569025 0.0013036076
ได้ 0.00069856417 0.001492179 0.0015128888 -0.0010790537 -0.00082189037 0.0014165384 0.001286921 0.00101209 -0.00069757184 0.00073645037 0.0016335549 0.0005903662 0.0011314318 0.00075549143 0.00063852774 -0.0008719883 -9.749946e-05 -3.909156e-05 1.6150025e-06 -0.001297347 0.0010652607 -0.0009449291 -0.0001378956 0.000107732994 0.0006336665 0.0008579873 0.00081254577 0.00037500515 0.00023495214 -0.0011227573 -0.001383047 -0.0010983946 -0.0014123054 0.00034393577 -0.00034933107 8.739062e-05 -0.0013269694 0.0007594697 0.0010675509 0.0015746135 0.0016258354 0.000240701 -0.0015635362 0.0014741825 -0.00077628833 -0.00013123646 -0.00026052727 -0.00091820525 0.0012344263 0.001287712 0.001313313 0.0007905712 -0.0005016212 0.00060023763 0.0005062517 -0.0013273148 0.00094351283 -0.0012867594 0.000620029 -0.0012073078 -0.00039421004 -0.00053867185 0.0012284085 0.00061614 0.0010100622 0.000510257 -0.0002014927 -0.00045546872 0.0013254955 0.0013325333 -0.0013909959 0.0011554518 -0.0005181399 -0.0011231219 -0.00031355745 0.00060684624 -0.0002584274 0.0010473231 -0.0015736157 0.00064060657 0.0010354191 -0.0016341216 -0.0009273513 0.0015655365 -0.00024971462 0.0005710019 -0.0008926702 -0.0007834189 -0.0001538772 0.0005038244 0.0013675732 -0.00080175383 -0.00073886215 0.0010295439 -0.0012323754 0.0010759361 -0.0014938142 0.00026761057 -0.0003846017 0.0015475762 0.00018182553 -0.0001388084 -0.0009297822 0.00043056067 0.00052770076 0.001208777 -0.00045268607 0.0006103581 0.0013628576 0.00020359934 0.0011581763 -0.0015649123 -0.00018985658 0.0012863905 -0.00030751736 -0.0014666014 -0.00045700432 -0.0015368642 -0.0005565664 -0.000965548 9.1932425e-06 0.00089723844 -0.0010915735 -0.0011578928 0.0013930148 -0.00048535762 0.00045188967 -0.0008155566 -0.00059099623 0.0011737997 0.00035679963 -0.00095384324 0.00101182 -0.0006922801 -1.4130927e-05 -0.0003836464 -0.0006769075 -0.000330504 0.0010367566 -0.001355212 0.0004397442 -0.00048697536 -0.0012366372 -0.0010419115 0.0007934635 -0.0012811725 -0.0012872715 0.00095307035 -0.00046735787 -0.00065522565 -0.0011813397 0.0014358801 0.00024355568 -0.00019001862 0.0016589767 0.0003709224 0.0004423611 -0.0006389491 -0.0007897931 -0.0015442151 0.0010840675 0.00013696936 -0.0011396311 -0.0012096361 -0.00059626735 -3.4465113e-05 -0.0012551555 -0.0013647511 -0.00011337304 0.0011775546 -0.00025252427 0.00039829942 -0.0009314984 9.729348e-05 -0.0011288114 -0.0013024277 -0.000860043 -0.00029164267 2.1632708e-05 -0.0012831608 0.0009247007 -0.00018139799 0.00042198738 0.0010502291 -0.0009416433 -0.0016360153 -0.0014218718 0.0015233029 0.0014204402 0.0001861317 0.0016554381 0.0010407288 0.0012923168 0.00092220854 0.0013432282 -0.0014009522 -0.00085970067 0.0003809492 -0.001379698 -0.0006433869 0.0010155652 0.00019858703 -0.001144928 3.9375256e-05 -0.00029988034 0.0014755323 -0.00034136564 -0.00046560925 0.0010677868 0.00051027565 2.8389439e-05 0.0002962704 -0.000966446 -0.0012805414 -5.0158305e-05 -0.0010780474 0.0002989265 -0.00031072815 0.00031452463 0.0012220957 -0.0006566276 -0.0002942729 0.0011281006 -0.0009826379 0.0015911147 0.0004313328 0.0008539527 0.00012584185 -0.001088523 -0.0001477244 0.0016061651 -8.768876e-05 -9.589912e-05 -0.0003906059 0.0015726702 0.00013942044 -9.926991e-05 -0.00060381775 -0.0013586843 0.00022260562 0.0015423963 0.0006412496 -0.00032922937 0.00046197014 0.0010432382 0.00017114326 -0.00014196974 -0.0015879775 0.0006797476 0.0006768607 0.001590842 -0.00043957419 0.00026397294 -0.0005427348 -0.0007385945 -0.0010849393 -0.0015946877 -0.00084077846 -0.0006385779 -0.00026894544 0.00012623912 0.0010859006 0.0008181226 0.00054888264 -0.0012231603 0.0015208711 0.0016503724 4.238657e-05 0.0013570572 0.00047895603 -0.0011696779 0.0015281742 0.0005917692 0.0013915696 0.00041443433 -0.0010078214 -0.0013951797 -3.333905e-05 -0.000268636 -0.0013965426 -0.00087305333 -0.00010639173 0.00056999543 0.0011138502 0.0016171881 0.0015587822 0.0011900901 0.00016719622 0.0009889802 0.00049078214 -5.9995586e-05 -0.00106873 0.00058489956 8.999507e-05 0.00052107393 0.0012766934 -0.0013786315 -0.0004119347 -0.0006736507 -0.0015171737
ว่า -0.0009827422 0.00043013025 -0.00017101054 -0.0016416118 -0.0007792753 0.0002328711 -0.0011913092 -0.00044512303 -0.0008008343 -4.5254576e-05 0.0014778479 0.0009195853 -0.0008138302 0.00010131177 0.001637526 0.0016058452 -0.0016311497 -0.00094109366 -0.0006222098 0.00019713686 -0.0010744808 0.0014998564 -0.0010124376 -0.0014323826 -0.0004492444 0.001072576 0.00043004093 0.0009806718 0.0010313999 0.0013262378 0.0002050619 0.0016406778 -0.0015997066 -0.0001873119 -0.00086384494 -0.0007887774 0.00093704445 0.0004776443 0.0013653386 -0.0004373191 -0.0014225977 -0.0014998734 -0.0007075909 0.0014281191 0.00111531 -0.0003612779 -0.000722005 -0.0010424101 -8.970221e-05 -0.0011820527 -0.0014943894 -0.0009641529 -0.0003457338 -0.0006428247 0.0006525548 0.00066045654 0.0011108122 0.0007424244 0.0015625057 0.0014332958 0.0016576443 0.0008787655 -0.00026650928 3.194943e-05 0.0015545834 0.0016166044 0.00018549607 -0.0015313448 0.00127444 -0.0005379567 0.0016109206 0.0009388943 0.0015915843 -0.0015633601 -0.0013787311 -0.00024204484 0.0016624022 -0.0006744434 -0.0015035599 0.00014755469 0.00030422243 0.00091399765 -0.0014231154 0.00040361172 0.0005153008 -9.9316785e-05 0.0013612222 0.0014140178 0.00020100875 0.0011187823 -0.0013347722 -0.0009568441 -0.0008792844 -0.0009823159 0.0002990454 -0.0007094152 0.00028279983 -3.681824e-05 -0.0009268007 -0.0014096143 0.0007143684 -0.00050791353 0.0009830771 0.000847252 0.0012673065 -0.0009434071 -0.0011567058 -0.0016606719 -0.00075248245 -0.0009344002 0.0007994319 0.0004380917 0.0016579393 -0.0012739107 -0.00021379207 0.00030766873 -3.9848263e-05 -0.00013089785 0.00082616595 -0.0011943775 -0.0010780955 0.00095372513 0.0008839656 0.0014993302 0.0011347262 -0.0010401235 -0.00095643394 0.0005119825 -0.0015879136 -0.0015479581 -0.0005874285 -0.0010947302 9.883287e-05 0.0015297648 0.0011154611 0.00021770396 0.0012612459 0.0004703862 -0.0016613217 0.0013472862 -0.00091473176 -0.001402719 0.0010834759 -0.000684448 -0.0002699583 0.0011783912 0.00027669198 8.690667e-05 0.0012237522 7.700221e-05 -0.000302812 -0.00033798566 -0.0015806508 0.0002333646 -0.0007187542 0.00029401283 -0.0012640706 -0.0004051875 -0.0002277533 0.0003490658 0.0008856965 0.0006829771 -0.001114036 0.00086208066 -0.0011794528 -0.00095634814 0.00080411264 0.00046358295 0.0003789318 -0.0009468693 0.0008937869 2.2119011e-05 -0.00055093784 -0.000118186275 0.00043870157 -0.0010524674 -0.00037692563 -0.0015636218 -0.0016558332 -0.0010018139 0.0013326252 0.0010800663 0.00029579355 0.0010949337 -0.0011369075 0.0011722919 -0.0012775442 -0.0015862449 0.0002848036 0.00022534825 0.0009284264 -0.0013067084 -9.862329e-05 0.00055389607 0.0016248882 -0.0010114595 -0.00023727943 0.00051306933 0.00049498724 -5.1347066e-05 0.00050808716 -0.00014584174 -0.00022907635 -0.0015892916 0.0016526738 0.0012520973 0.0014291295 0.0013120768 0.0005850483 0.0014761138 -0.0010487741 -0.00059642276 -0.00041494076 -0.00011405687 0.00045790419 0.001578739 -0.0015692691 0.0015699285 -0.00063070585 0.0004304169 -0.0015012404 5.7188092e-05 -0.00042211462 -0.0008796949 -0.0004245346 -0.0006071769 -0.0013076983 0.0015907126 0.0007226054 0.0006724672 -0.0011166473 0.0015495165 0.00037871048 0.00017895356 0.0009288129 -0.0015700705 0.00036554298 -0.00085041724 0.00014943165 7.921133e-05 0.0012577497 -0.0016591201 0.00068086147 0.000108783934 -0.0015412185 2.5554957e-06 -0.00013608666 0.001073339 0.00024392351 0.00042945068 6.2622654e-05 0.0014583023 0.0012287652 0.00035657024 -0.0007711205 0.00017086191 0.0014364588 -0.00058006507 8.256633e-05 -0.0010183349 -0.0015233502 0.0005530024 -0.001554418 0.0015610147 0.00067559996 -0.0016489191 -0.0010854696 -0.0016593932 -0.0010423752 -0.0012693178 0.0005940725 -0.0005622507 0.0011251153 0.0012128381 -0.0016084792 0.00020822203 0.0011100739 -0.00023693373 0.00035802336 0.0014680238 0.0015189857 0.0008924252 -0.0001162879 0.0006429473 0.00027218854 -0.00045409522 9.619532e-05 -0.0014990008 -0.0005690463 -9.579749e-05 -0.00024789068 0.0006652784 0.0013313079 -0.0015510615 -0.0006195157 -0.0006198028 0.00034156503 0.00012070818 0.00044087679 0.001162918
จาก -0.00084947824 -0.0012507171 -8.981376e-06 -0.0007677335 -5.8283065e-05 0.0013038927 -0.00017018139 -0.0008102133 -0.0015091401 -0.0003501788 0.0011127685 0.00057987525 0.0006031767 0.00032925373 0.00032791795 -0.00053885666 0.0005361296 -5.728662e-05 5.7190242e-05 -0.0010396189 -0.00081625144 4.8527572e-06 0.0016276839 -0.00065140374 0.0013624247 -0.0009038596 -0.0016467951 -0.001375165 0.00040797965 -0.0013366048 0.00078631437 -0.0014409473 0.0008831505 0.00031223733 -0.001514004 0.0007952208 -0.0004976332 0.0014945888 0.00039875222 -0.00015261814 0.00032247044 0.0012382548 0.0009806068 0.00015297064 0.001252971 0.0002608529 0.0013119818 -0.00089362636 0.0016097244 0.0007123213 0.0001108231 0.00063733244 -0.0010716273 0.0007897272 0.0014419013 -1.55708e-05 -0.0014136588 -0.0016421532 -0.00051700714 5.807769e-05 -0.00033082635 -0.00044496695 -0.0016572574 -0.001570917 -0.0004123185 -0.00078065775 -0.0004439789 0.0016320199 0.00039866604 0.0006145658 -0.001030462 0.00029875757 0.0011309083 -0.00022148281 -0.00054820505 0.00035596176 0.0013552738 -0.0012565673 -0.00072454184 -0.00029053065 0.00026715593 0.000180823 0.0011012155 -0.00080208894 -0.0013306772 0.0006332389 0.0005942777 -0.00044634103 0.0011284654 0.001551062 0.00058540085 0.0010913569 -0.00036366773 -0.00067340105 -0.0015995742 -0.0015966167 -0.00044728248 -0.00056573347 0.00048207253 -0.0012789336 -0.0015780564 0.0013010388 0.00029246495 -0.00087295583 -0.00015949922 0.0012147077 9.939601e-05 0.0010788165 0.0015045456 0.0005295429 -0.0012157535 0.00056387606 -0.0012961932 0.0006459096 -0.0014988605 7.2566756e-05 -0.0011159872 0.0013681464 7.913709e-05 -0.0010541782 -0.00038824466 0.0012199673 0.00037610592 0.0015203913 -0.0011158229 -0.0013784923 -0.00073089707 -0.00044110502 -0.00016309445 0.0006941179 0.00041533873 -0.001036054 0.0009734336 0.0015553934 4.916255e-05 -0.00018185894 2.725233e-05 -0.0003262236 6.261686e-05 -0.00038540445 -0.0006490562 0.0010144433 -0.00034401336 2.695062e-05 -0.0016223283 -0.0016549286 -0.0004646555 -0.0013961993 0.00065023475 -0.001206148 -0.0011319251 0.00088624767 0.0015839832 0.00019599657 0.00095972774 -0.00096013333 0.00023832497 0.0015460238 0.0016294132 0.0010239453 0.0016504951 0.00010090974 0.0005150091 0.00090951286 0.0002195996 -0.00018482014 -0.0014572698 -0.00041537193 0.0014999781 -0.00020163928 -0.00040391702 -0.0005358597 -0.0006864272 0.00028830676 0.001184883 0.0010676634 -0.0013796298 0.00043105558 -0.001612728 0.0013337138 -0.0002455571 0.0011427766 0.00020994701 -7.361589e-05 0.00079363957 9.5158415e-05 0.0012689108 -0.0010353229 7.940766e-05 0.00038243886 -0.001155342 0.001006245 -0.0013071671 0.0010350548 0.0009412085 0.001396875 0.0010051633 -0.0009207038 -0.0016146248 0.00060525833 -0.0013370002 0.0015169375 -0.00031795722 -0.000994997 -0.00025926 -0.0003611837 0.0006036697 -9.41452e-05 -0.0013756314 0.0016338951 0.0015256626 -0.00040760927 -0.0014970963 0.0010853764 -0.0001702527 -0.00077774026 0.0010136552 0.0011575456 0.000722649 0.00055914256 -0.00044443097 -0.00021772343 0.0006983522 0.00051874993 -0.00035857753 0.0014758625 -0.0005312001 -0.0011596337 -0.0012754912 0.00018142542 0.00057154114 -0.0016237176 0.00060440117 0.0006140839 0.0012525136 -0.00033451166 0.0009311372 0.0016440677 0.00088710815 6.807613e-05 0.00096350367 -0.0014683588 0.00011672791 0.0012142689 -0.0014635291 0.00084558385 -0.00057917176 -0.0010926676 -0.0014956355 0.00048017438 0.00092014286 -0.0011561112 -0.00052835984 0.0012067491 -0.0005137464 -0.0013593332 -0.00037131476 0.0009338439 -0.0009496371 0.0005391991 0.000569432 0.0009200238 -0.0007800502 0.0008234975 0.0007866262 -8.086316e-05 -0.0005714355 -0.00019715709 0.0008202267 -0.00054172473 0.0006115452 -0.0004481877 -0.0012018348 -0.0012750615 0.0014015394 0.0011190765 -0.00010094691 -0.0012554682 0.0011791042 -0.0016056478 0.0007009732 0.0007038568 0.00046448273 -0.0014944203 0.00014991198 0.0012610254 0.00041726112 0.0003510253 -0.0012270757 -0.0009374623 0.0015122154 0.0014748011 0.0009890047 0.0005954849 -0.0004927125 0.00073393265 -0.000361004 -0.0009941655 -0.0016376665 -0.00046854405
กับ 0.00026360565 0.00027145556 -0.0009073694 0.000708216 -0.0016354396 -0.0015706435 0.0008478791 -0.00040704463 -0.0014906075 -0.0006734614 0.0013373432 -0.00063552405 -3.391122e-05 0.00027222198 0.0011781545 0.00037568656 0.001493474 -0.0011174085 -0.0012032224 -0.00027726087 1.938385e-05 0.0011490228 0.0009310992 -0.001381031 0.0001409298 0.0010797633 5.1748808e-05 -0.0014246769 0.00010035376 -0.0013397642 0.0006688792 -0.0007009826 0.0015158927 0.0016280654 -0.0005113494 -0.0015560596 -0.0014475159 7.228252e-05 -0.0009575987 -0.0012968329 -0.0013306412 0.0015742972 0.00047743172 0.00096851564 0.00085785455 -0.00041539563 -0.0006959215 -0.0014390843 0.0014615769 0.0013323936 0.0007457917 -0.00093471527 0.0015134374 -0.0005623468 0.0008470158 -0.00019507889 -9.08503e-05 0.0014321121 0.0011814439 0.0012136957 -0.00068187766 0.00016970263 -0.00077632064 0.0013195357 -0.0008543385 0.00092611474 0.0009288754 0.00016981665 -0.00018809579 -0.0015433524 -0.00036412908 0.0006250952 8.746146e-05 0.00096175924 -0.00069824845 -0.0012103164 -0.00058697525 -0.0016549993 0.0016147936 -0.0010700651 -0.0011579224 0.0011228649 0.001335365 -0.0005494759 0.0012768902 -0.0016239134 -0.0007133145 9.236477e-05 0.0015371377 -0.0006439715 -0.0012296556 -0.000771681 -0.0014210051 -0.001020499 -0.00021592798 0.00025550515 -0.0006544469 0.0008220476 -0.0012841026 -0.0015509988 0.0009532624 -0.00044461354 -0.00021739201 -0.00020662206 -0.00086456223 -0.0011428152 -0.00024645304 0.00041337826 -0.00031591786 -0.0016157106 0.00086870673 0.0014288197 -0.0012118025 0.0016116116 -0.001214104 0.0006035799 0.0009806604 -0.00011859631 0.00091105915 -0.0006838108 -0.0007784655 0.00014577487 0.001044429 0.00080585177 0.0010776046 -0.00047302776 -0.00027124916 0.0008130076 -0.0007309575 0.0012618584 -0.000542242 -0.0006619295 0.00097172416 -0.0012023129 0.0006974549 -0.001437206 -0.00069867197 -0.0003263455 -0.00029830565 0.00053297874 0.001219371 -0.0003247088 0.0016192015 -0.0014797719 0.00015796318 -0.0015857252 0.0006076836 -0.001192582 -0.0007308708 0.0010057847 -0.001422476 -0.0005024007 0.0015852144 -0.0016495874 -0.0015913489 0.0015740105 -0.00079882774 -0.00021981081 0.00012489791 -0.0007325237 0.0012916425 -0.00012563965 -0.0009233494 -0.0012283536 0.0013983161 0.0005931443 0.0008370919 -0.000955522 -0.0011042726 0.00083062786 0.0014623055 -0.0006610405 -0.00030864123 -0.00021588305 -0.0015091043 0.0013223004 1.7749295e-05 -0.0009970138 0.001575175 0.0013010825 -0.0015558858 -0.0008101399 0.0012450074 -0.0014972535 -5.127866e-05 0.0012525991 0.0007519243 0.0008178678 -0.0015161154 -0.0011997209 0.0014858946 -0.0006967624 -0.0015524422 0.0010557028 0.00043741683 -0.00083198544 -0.00095468987 0.0014279515 -0.00087351684 0.0007872014 -0.001652119 0.00049749046 0.0013329422 0.0012389147 -0.0005383563 -0.00022999948 0.00020996618 -0.00037490472 -0.00072558544 0.0011222973 0.0011613385 0.00010844533 -0.00084481493 -0.0015756872 -0.0011754928 -0.001468186 0.0003436792 -0.00011184812 8.087329e-05 -0.00031202578 -0.0013494494 -0.00096933846 0.0006924767 -0.00037262126 0.0016484314 -0.0016584612 -0.001447578 0.0010710617 0.0002639914 -0.0013176925 0.00026662392 0.0010257737 0.0015975944 0.0001198093 0.0004013999 0.0013302517 -0.0012451014 -0.0015263631 0.0012102902 -0.0007362908 0.0016312185 0.0016293386 -0.0014859622 -0.0003829887 0.0009736627 -0.0011949597 0.0013750659 0.0011368135 0.00013754873 -0.00023208953 0.0015183379 -0.0009199483 0.0010012904 -0.00026259973 -0.00018764987 -0.00019374418 0.0005101003 0.0011654533 -0.001530776 -0.0010720384 -0.0015529209 0.00061261497 0.0013188596 0.0015454468 -0.0011016561 -0.00056323456 0.0012546564 0.0009008289 -0.00087456073 0.00018384994 0.0002763136 -0.00029141022 0.00038839388 -0.00071749644 -0.00037817925 0.0016327315 0.0003538484 0.0001681142 0.0015348922 0.0011330908 0.0005183955 0.00036445755 0.0015861864 0.00035362036 0.000161669 0.00020103485 3.6275564e-05 0.00044042655 0.0011488512 -0.0006400303 0.001630204 -2.778366e-05 0.0010608421 0.0012743487 -0.00028537004 -0.0002827851 0.00029198176 0.0002679186 -0.0012332596 0.00127623
ถูก 0.0015382336 2.871276e-05 0.0010701981 0.0006623311 0.0010219138 0.0007216191 -0.0004047699 0.0004975089 0.00058254076 0.0012316537 -0.00071415113 0.00020308053 0.0015827947 -0.00096066506 0.0011354241 0.00017428689 0.00020872543 -0.0008616465 -0.0014828828 -0.00100046 -0.0015003091 0.0013561578 0.0013631415 0.00017554665 0.0015473905 -0.0015515297 -0.001516412 -0.0012676681 9.70207e-05 0.00013830367 -0.00011129781 -0.0010684191 0.0016157875 -0.0013421732 0.0013276525 0.00019902189 0.0011930423 0.001548956 -0.00020023587 -0.00020837729 -0.001622904 -8.883834e-05 -0.0014934582 -0.00084545603 -0.0016186917 -0.0015963269 -0.0011520335 -0.00063612073 -0.0016325201 0.0010037275 0.00076952303 0.00051398604 -0.0005767228 0.0011877822 -0.0007830342 -0.0005844791 0.0007949994 -0.0012097714 9.597119e-05 0.0007680483 -0.0015804038 -0.0011264452 -0.0009936253 0.0011747307 -2.0845877e-05 0.0011068298 -0.0014413771 0.0004132493 -0.00019731096 -0.0016188214 -0.0009162812 -0.0015380178 -0.00058586453 -0.00028115496 -0.0015798424 0.0008539896 0.0005388492 -0.0014976837 0.00085070584 -0.0015837821 0.00060143817 0.00036798633 -0.0011190834 0.0011891386 0.0013971553 0.0005129851 0.0006209079 -0.0016664251 0.00022296731 0.00054945523 0.0006549656 -0.00055447087 -7.552928e-05 0.00019848606 -0.0012000478 -0.00020868995 -0.0008730907 -0.0015266752 0.0013756545 0.000118973214 0.0013134597 -0.0011364558 0.001586551 0.00096066896 -0.0011964411 -0.00016283769 0.00019582044 -0.0007228116 -2.8621647e-05 -0.0016558857 -0.0013346607 0.00096074055 -0.0011593528 -0.00035369955 -0.00057136297 -0.0013011481 -0.00068945327 0.0009915459 -0.0012981553 0.0004736774 -0.0007157233 -0.001256149 0.0012243347 -0.0015162939 0.00012473842 -0.0015297338 0.0005954529 0.0004632452 -0.0015126412 0.0009406416 -0.00061386864 -0.00068831304 -0.00055428216 -0.0014529056 -0.00080615934 -0.0007901486 -0.00077354023 -6.972795e-05 9.172326e-05 0.0013221587 0.0012871762 -0.0009931867 -0.00019373868 -0.0008608578 -0.0007624374 0.000697057 0.0011115368 0.0014696064 -0.0007959207 -0.0014229955 0.0010735693 -0.00068663905 -0.0012737566 0.0015945078 -0.001003852 0.0008143361 -0.001655539 0.0006340355 -0.0003984889 -0.00033825613 0.0007553625 9.801734e-05 0.00036427565 -0.0006476289 -0.00043416797 0.0014287583 0.000711828 0.0008995826 -0.00043683924 9.024621e-05 -0.00037521604 -0.00071829447 -0.000117942305 0.0006227662 0.0005066287 -0.00041434952 0.0008309577 0.0015974662 0.00045782304 -0.0002367502 0.0012408074 -8.996661e-05 0.0004329138 0.0011732259 -0.0010084668 0.0005087754 -0.0011898619 0.0012463013 -0.00092039054 -0.0011868493 -0.0006562202 -0.0008288261 0.00064285315 -0.0016337904 0.0012643305 0.00076561794 0.0003827182 -0.0004324848 -0.0015393421 0.0011856967 -2.3727502e-05 0.00028064963 -0.0015952346 0.00097380654 0.0014698732 0.0016279245 7.788814e-05 0.001472621 0.0014910949 -0.00084444747 -0.00045298817 0.00062797754 7.2119224e-06 0.0013604824 -0.0014677683 0.00013247915 -0.0008907733 0.0012641477 0.0010772595 0.0014131757 0.00138858 -0.0012418737 -0.0012310422 0.0015682125 -0.0010347258 -0.00074783614 0.00042950196 -0.00080853835 0.00047275733 0.0011537541 -0.0010114305 -0.00085983647 -0.00091036747 0.000953085 -0.00015949104 -0.0004295514 0.0015668754 -0.0016451385 0.0006387527 -0.00038061352 -0.0011184167 0.0016541041 -0.0007043814 0.0005871092 0.0010563862 0.0012295541 -0.0004184941 0.0005835695 0.001652088 0.00016012746 -4.962276e-05 0.00028247337 0.0007982486 -0.0014231643 -0.0013497327 -0.0014231597 -0.00053466833 0.0008967506 -0.0008282544 0.0009408107 0.00091081613 -0.00023377792 0.0011873847 0.00068078825 0.0001182252 -0.00079359557 -0.0003282122 -0.0002744964 -0.0007183115 -0.0013795496 -0.0014558232 0.0001424454 0.00014044202 -0.0009468174 -0.0014570022 0.001274778 0.00072032015 -0.0013177892 0.0010748669 -0.0011542131 -0.00045992807 0.0015067852 -0.0014548715 0.001040055 0.0007255654 0.0014726615 0.00025276255 0.0009937286 0.00057907787 -0.0016039719 0.00082283764 -0.00037068833 0.0009428072 -0.00058318465 -0.00030887607 0.0015853479 -0.00020280779 0.0011832138 0.0011471485 -0.00028222505
คน -0.00055420096 0.00034452637 0.0008428748 -0.000107342465 -0.00054315664 0.001542178 0.00091036415 -0.00068408664 0.00040271672 -0.00044556358 -0.000980675 0.001377116 -0.00026542155 -0.0010235 0.00029734444 -0.0014801428 0.0001607494 0.00052760425 0.0005009156 -0.0012555184 0.00080666266 0.00038166574 0.00139509 -0.0016151909 0.00020594892 -0.0012877167 0.0013156874 -0.0005694238 0.00030533498 0.00078489864 -0.0006247491 -0.0009902084 0.000100211626 0.0006500715 -0.0016048462 0.0011881808 0.0015514245 -0.00042705936 -0.0012774318 -0.0009786735 -0.00032967178 0.0014398962 -4.8316033e-06 0.00023687462 -0.0016298991 0.0012657994 0.0005760421 -0.001068889 -0.00028529667 -0.0007181427 0.0014110256 -0.00018816991 0.00059737056 -0.0014790371 0.0016609979 0.0015784979 0.0013472404 0.0005895566 0.001036677 -0.0015408297 -0.0004477275 0.0008425434 -0.00043345813 -0.0004824937 -0.00053944177 0.00013913155 -0.0013254673 -0.00074540556 -0.00026644292 -0.0015182833 0.0014479903 -0.0011998527 -0.0015130095 -0.0009359773 -0.0007258696 -0.0010971905 -0.00096330594 -0.0016035257 -0.0001846922 -0.0009163355 -0.001362716 0.0014226631 -0.00081992085 0.0011834087 -0.00017910005 -0.000744162 0.0002173207 -0.0011255611 0.0014905229 0.00069996703 -0.0015048084 -0.0009680105 0.00083925447 -0.0015854321 -0.0010777093 0.0012148336 -0.00018317673 -0.0011388306 0.00084193784 0.0010579427 0.0013443193 0.0009576847 0.001009782 -0.00023892778 0.0012324305 0.0014704007 -0.00034359595 -0.0012706037 -0.0011698686 -0.00012971651 -0.00022121686 0.0014538126 9.392008e-05 0.0016257867 -0.0016006691 0.0013127867 -0.00064869766 -0.0008139618 0.00036836148 -0.0012804859 0.000515171 -5.1205593e-06 0.00014595994 -0.0014403727 0.0012968824 -0.00078985933 0.0008424785 0.0012543392 -0.0015965059 0.0012843338 0.00061430485 -0.00048857793 0.00032043929 0.00050933997 -0.0015389839 4.9088107e-05 -0.0006702661 -0.001505048 0.0012951337 0.0012738409 0.0006637512 0.0006417741 -0.00043587794 -0.00025378226 -0.000910527 0.00092666276 -0.0016141554 0.0016561743 -0.0013460114 -0.0014171802 0.00082189945 0.0006096232 0.00025250064 -0.0011610002 0.00042270496 0.0009369915 -7.192595e-05 0.0015587955 0.0004874749 -0.0016611085 0.0012418851 -0.0001567746 -0.0009268798 0.0015216284 -0.0013088477 0.00024967885 0.00039937298 -0.0009943318 0.00013773095 -0.00079463783 -0.0005712438 -0.0015300891 6.776815e-08 0.00045790244 -0.0004908634 0.0003098572 -2.4779923e-05 0.00027948513 0.0014421762 0.0008694316 0.0011989123 0.0005083134 -0.0012168998 -0.0014827175 9.1834445e-05 0.001125079 -9.137911e-05 8.460242e-05 -0.00024172962 0.00019588764 0.0004072901 0.00031206675 -0.0012367566 -0.0013452965 0.0010523258 -0.0004625313 -0.0011081969 0.0002653458 0.0014266556 -0.0016001578 0.00044666458 0.00029215895 -0.001406835 -0.00022785916 -0.00028441343 -0.0014547781 -0.0008650395 0.0006018644 -0.00031586213 -0.00013718604 0.0014441013 0.00087257114 0.0005620902 -0.00083578174 -0.0014963683 -0.0001770849 0.0005157351 -0.00014691155 0.0010859488 -0.0011573248 -0.00076084485 -0.0009003285 -0.0015091703 -0.0012402751 -0.0012087052 0.0013874051 0.00079243863 -0.0004161481 -0.0003890856 0.0012911638 5.8479036e-05 0.00080894365 0.0015044666 -0.0016636141 0.0003807765 -0.0005324751 -0.0015872344 -0.0011980736 -0.0014116002 0.001529261 -0.00069789035 0.000529445 0.0012375 -0.0006137111 -0.0013288121 0.0012731666 -0.0006218489 0.0014278026 0.0004570728 0.0010667184 0.00082454394 -0.00092235324 -0.00050859386 -0.00073299947 -0.0012960314 0.0013399 -0.0008901092 -0.0010915109 0.0013029199 -0.0010229514 -0.0012781526 -8.115108e-05 0.00059232226 -0.0015959106 -0.0011945466 0.0005936737 0.00056330435 -0.0011361551 -0.0016564652 0.00076202926 0.0012074918 -0.00086065964 -8.439733e-05 -0.0002780028 -0.0015940581 -0.0003885061 0.00022471407 0.0011077445 -0.0005716741 0.0013929023 0.001542832 0.0016020762 -0.001417471 0.00021759131 0.00031717715 6.0585648e-05 -0.0002138695 0.0014038751 -0.00048009065 0.0007695912 0.0005680013 -0.0012038321 -0.0007854612 -0.00052310847 -0.0012353297 0.001136967 -0.0016311755 -0.00038053916 0.0011171892 -0.001407302
เข้า 0.0013997258 -0.0007395215 -0.0012603196 0.0010831417 0.0012608215 -0.00022030168 -0.00047642444 -0.0014990303 0.001101756 0.0009340719 0.0007282841 -0.00078526157 0.0012043846 0.001026487 0.0016307734 -0.00093205244 -0.00075034134 -0.00064388145 0.0009965985 -0.0015966013 -0.0013344826 0.0013886192 0.0007546251 0.001336307 -0.000546331 0.0010193234 -0.0012366538 0.0010124427 0.0010145452 0.000893706 0.00044025478 -0.0012567797 0.001094932 -0.0016055696 -0.0013431739 0.0006522559 5.2477797e-05 0.00039125505 -0.0014973709 -0.0014923258 0.00034459043 5.3776155e-05 -0.0013060137 0.00035486443 -0.0009148096 0.0011664752 -0.00046036683 0.0014560748 0.0014781781 7.232167e-05 -0.00059881964 -0.0011766235 -0.0002686518 0.00092814106 -0.0003046163 9.438611e-05 0.00019944078 0.00045172588 0.00017009811 -0.0010264894 -0.00079839607 0.0015584339 -0.0003435782 0.0010404957 -0.0011158448 -0.0016098047 0.0007805443 0.00093014113 -9.686672e-05 -0.00021092423 -0.00070734054 -0.000588128 -0.0003955241 -0.0015639215 0.000113890725 0.0013293461 -0.0001105965 0.00029506438 0.0015889361 -0.0012222168 -0.00066928455 0.00012870914 -0.000979225 -0.000299999 0.0010208748 0.0008215836 -0.00061850686 -0.0013746335 -0.00034817308 0.0011003059 -4.636661e-05 7.0737595e-05 0.0016011449 -0.00014676241 0.00068189827 0.0015905435 -0.00054555945 -0.00033044917 -3.4807163e-05 -0.00024893426 -0.0005666237 0.0008796139 0.0008442578 -0.0002014863 0.0014116155 0.0010792474 0.0012522934 0.0009611474 -0.00045167215 0.001122188 -0.00015929135 -0.0008713329 -0.00029621206 -0.0004202747 0.00042249108 -0.0005360878 -4.080075e-06 0.0005971273 -0.001380414 0.0011244218 -0.00041552997 0.0009770204 0.0015250888 -0.0014154918 0.00073657604 -0.00056537084 0.000765898 -0.00028039227 0.0007475932 0.00089490425 -0.0010180735 -0.0012827538 0.00107183 1.7421598e-05 -0.00025393866 -0.0007204735 -0.00037190216 -0.0010274256 0.0002623666 -0.0014035398 0.00029099963 0.0007348161 -0.00021004175 -0.0008305905 0.00049501687 0.0010748589 0.0014593086 0.00083173334 -1.3822135e-05 -0.00019383877 -0.00068610907 0.0013917363 0.0009774332 -0.0015875538 -0.00014208247 0.0012822256 7.85607e-05 0.0002528141 -0.00031848194 9.546183e-05 -0.0004665007 -0.0008153317 0.00013940038 -0.0010409494 0.0011804288 -0.0016351317 -0.0015144256 -0.00073156424 -0.00090992573 -0.000112844675 -0.0011534636 -0.0012536856 -0.0011251393 0.00037332036 -0.0015067998 0.00083480775 0.0005302681 0.00036473415 0.0013957039 -0.00065352744 0.00048155143 -0.001456469 0.00075557583 -0.0012608716 -0.0011760057 0.0010826471 0.0016598203 0.00092692004 -0.0011622009 0.001060405 0.00022570061 0.0011296754 0.001007313 -0.0010227087 -0.00055115577 -0.0010801652 0.00037725168 -0.0010782594 -0.00063224754 0.0008081673 -0.00045241544 0.00016955892 -0.0012798266 0.0011676684 0.0014305154 -0.00013081837 -0.0008842464 0.00032159413 -0.00068786857 -0.00092138816 0.00079026155 -0.0010494482 0.00042556404 0.0013202459 0.00030321412 0.00084612076 0.0015016004 -0.00021997181 -0.0016211995 0.0014081642 -0.0005453853 0.0010244207 0.0011265785 -0.00011853651 0.0009176097 0.00095394405 0.0011871635 0.00019933005 0.00010809166 -0.00053190097 0.0011247403 -0.00020922732 -0.000116393705 -0.00090389664 0.0012400862 -0.0010278117 -0.0004703849 0.0009585981 0.00040335956 0.0011006678 0.0014557863 0.00020476284 -0.00072002056 0.001389786 -0.0016490914 0.0011909973 0.0002772685 -0.0015192244 0.00094426406 0.0011472924 -0.00018298185 -0.0014295853 -0.0010509264 1.486095e-05 0.0014185205 0.0014817519 -0.00035134578 0.0010932924 0.0014827203 0.00039822192 0.0013252228 0.0011473832 0.0011373775 -0.0014300381 0.0010492838 0.0010733887 0.0006430887 -0.0014443034 0.0007337344 -0.0007862586 -0.00089653785 -0.0016100548 -0.0009092971 0.0009613463 -0.00054380647 -0.0010391931 0.0014810511 6.9004316e-05 -0.0013310353 0.00071236363 0.001455472 -0.0011090048 -0.00090251485 -0.000110182606 -0.00075511186 -0.00015618319 0.00012330122 0.00089152664 -0.0011522921 0.0008254394 0.00034489422 0.0013382193 0.00047750422 -0.00041197453 0.00027935137 0.0008758403 -0.0005110998 0.00034531095 -0.0016038803 -0.0012558847
อย่าง -0.00061463524 -0.0004632502 0.00010832647 -0.0007578335 0.0002986732 0.0013941675 0.00075650186 0.0009756953 -0.00086510443 0.0004164597 -0.0004962003 0.00063533604 0.00051934767 -0.0010927344 0.0013281398 -0.001453042 -0.0005950002 -0.00039362538 0.0014368886 0.00013230318 0.0008688595 0.001221092 0.0016269847 -0.0006663752 0.0006543684 0.0013008114 -0.00014500647 0.0004699844 9.350703e-06 -0.0004673126 0.0014178981 0.0008358518 0.0015666632 -0.00052255316 -0.0013053347 9.292345e-05 5.5879295e-06 -0.00039156992 -0.00084631366 0.0013635778 -0.0012544075 0.0010037539 0.00026170275 0.00067216647 -0.0011857414 0.00031282558 -0.0007662321 0.0002482784 -0.0014815562 -0.0010372286 -0.0013667385 -0.0004248009 2.6170945e-05 -0.0011197218 0.00036735623 0.00010849973 -0.0005712546 7.5146545e-06 -0.00024208028 -0.0012481408 0.00038316904 0.00053570693 0.00039007908 -0.0006542255 -0.0011797075 0.0004933928 -0.00027886484 3.130867e-05 0.00026316498 -0.00046590812 0.0011867996 0.0008601018 -0.0010806471 -0.0009061778 -2.4401803e-05 -0.0012011878 5.9372163e-05 -0.0016558908 0.0013815631 1.3585175e-05 -0.0008515229 -0.00037237824 0.0015000319 0.00022197286 0.0012840221 0.0007400744 0.00040021652 -0.00013133905 0.00068390055 0.0015007189 -0.0012004199 0.0010913243 -5.397042e-06 -0.0009329806 -0.00024372782 0.0012693125 -0.00051296 0.00032535582 0.0004479156 0.00087019766 0.00084303785 -0.00097566436 0.000722506 8.287857e-05 -0.0004955362 -0.0009165144 -7.505403e-05 0.0015046411 0.00021352718 -0.00043939496 -0.0012379803 0.0011312022 -0.0016425733 0.0016275828 0.00021142075 -0.0011872809 0.00029741979 0.0010937471 0.0014789395 0.00095438736 0.00038779678 -0.0014066033 -0.0014485369 0.0008934961 0.00017389713 -0.0012614018 -0.0002642186 -0.00028561687 0.0013088249 0.00080956187 0.0008873049 0.00023135389 0.00050184695 -0.00013895732 -0.0011814727 -0.0011855852 -0.0016666471 -0.0015427378 0.00028992633 -0.0015512487 0.00021765487 -0.00067220983 1.191141e-06 -0.0012650018 0.0010822108 -0.0006173936 0.0012087515 0.0010334076 0.0014714148 -0.0012635615 -0.00047859666 0.001090947 0.00064575515 0.00060650223 0.001636351 0.0010764259 0.00018601883 -0.0015683961 -0.0015849518 -0.00014675166 0.0014612445 -0.00086465466 -7.6567805e-05 -0.00079974555 0.0010040028 -0.00044789567 0.00088983955 -0.00025573192 -0.0009832497 0.0005898233 -6.172214e-05 0.00038025182 -0.00047767247 0.00046052117 0.0011034177 -9.744607e-05 -0.00044003982 -0.00071682286 0.00013017829 -0.00074897497 0.0013591211 0.00012626742 0.0015039846 0.0016222349 -0.0008555611 -0.0009826176 0.000944541 -0.0003696255 -0.0015651494 -0.0011952019 6.908337e-05 -0.0015634764 -7.878108e-05 0.0009721882 -0.0005531865 -0.0016016926 -0.0009327969 0.0003132553 0.0010798734 -0.0009610472 -1.5316706e-05 -0.00049177365 0.0005213903 -0.0005503104 -0.0011592149 -0.0014842435 0.00043545075 -0.00033376773 -0.0006674924 0.00029040858 -0.0012017655 -0.00016977967 -0.0010183753 0.00048640426 -0.0007414764 0.001308405 0.00041846567 0.0007702706 -0.0014734102 0.0008123283 -0.0011670417 0.00035167858 -0.0011815012 0.0016466924 0.00029745486 0.00067413715 -0.0008619297 -0.0006314504 -0.0009915511 0.0012981136 -0.00026556582 0.0015330074 4.5988018e-05 -0.00070523197 -0.0014230626 0.00094970095 -0.00085029827 0.0012818404 -0.0015038397 -0.0011615875 0.00023945718 -0.0012411907 -0.0015041218 -0.0009136185 0.0009964312 0.00066443067 -0.0003092143 0.0012631646 0.0016525005 0.0007081521 -0.0010516562 -0.00016357153 0.0013596995 1.31746565e-05 0.0013510186 -0.00015393084 -0.0006069304 -0.0010887458 0.0016370572 -0.00023816279 6.805587e-05 0.00082155346 0.00046236857 0.0002518836 -0.0011761775 -0.0010982387 -0.00035734093 -0.001233403 -0.0004369392 0.0010280564 0.0014971994 0.00048180454 0.001005973 0.0010233716 -0.0003180182 -0.001209728 0.0003305771 -0.0010900381 -0.00023605669 -0.0006538093 -0.0016303625 0.0008854999 -0.001572246 -7.431879e-05 -0.0008348645 0.0015720169 0.0016509 -0.00088941085 -0.00080734934 -8.793236e-05 0.0016007009 -0.0014658438 -0.0012237848 -0.00042841118 0.00050126336 -0.00043955602 -0.00022077441 0.0008144236 9.454035e-05 0.00017132206
จึง 0.00021564733 0.00016973195 0.00051944616 0.001612669 0.00048824088 -0.0010019619 0.0016203655 -0.00084494456 0.0010576238 -0.0012180456 -9.439501e-05 -0.0010507617 -0.00026665698 0.0012830766 -0.0004459702 -0.0011909549 0.0013499949 -0.0006095185 -0.00014808447 -4.614759e-05 -0.0011587283 0.0014248325 -0.00064916245 0.0010931888 0.0009208284 -0.001581772 0.001116103 6.0388946e-05 0.00050093426 -0.0010263898 -0.0016374058 -0.0008843685 -0.00043358724 -0.001441186 -0.0008771503 0.0007554734 -0.0016530185 -0.00050956855 0.0016087714 0.0011756781 -0.0016519696 -0.00012453193 -0.00096555654 -0.0015237374 -0.0010741986 -0.000645502 0.0015880053 0.00027627297 0.0009838352 0.0008414128 -0.0009062836 0.00076653226 7.043349e-05 -0.0013517789 0.0012064102 0.0011616009 0.0011624803 0.0013630507 0.0008507057 -0.00017375778 -0.0011711833 -0.0011507514 -0.0015700555 0.0011786919 0.00036313088 -0.0010176385 0.00066204317 1.1895781e-05 0.00060594175 0.0004723019 0.0010462718 0.0010520469 -0.00035763654 0.00039423598 0.0010287038 -0.00050860684 0.0001706513 -1.2807643e-05 0.00017341299 -0.0006930347 -0.0012439676 -0.0012909075 0.00024813137 0.0010894728 -0.0010120483 0.00021185947 0.00017993024 0.00034507806 -0.0013020401 -0.00095430267 -0.00012274382 0.00020525763 0.001607549 0.0010012123 2.7947668e-05 -0.0013098861 -0.00087602925 -0.00016135139 -0.001422244 -0.0015271148 -0.0015950355 0.0011691172 0.00093435816 -0.00044074596 -0.0015908905 -0.00014236427 0.0015381466 -0.00020998123 0.0004512069 0.0013474218 0.0008982762 -0.00061853335 -0.0007940908 -0.00084405584 -0.0010038433 -0.0008327513 -0.0010591628 0.00040286322 0.0010193072 -0.0014783634 -0.000869896 -0.0002717851 0.00052435015 -0.00053763227 -0.001287637 0.0006480448 3.064464e-05 -0.00016846428 0.0013859587 -3.7301281e-06 -0.00059347553 0.0011262083 0.0001666341 0.00035565146 0.00077353726 -0.0011289266 -0.00052111084 6.868148e-05 0.001395577 -0.001016628 0.0016536186 -0.00041780822 0.0011583526 0.0011642772 -0.0008453209 -0.00074067625 0.0014911602 -0.00057163625 0.0014539172 0.00084902655 0.00031304156 -0.0012858466 -0.0008147217 -0.0013750406 0.0007886258 0.0011198157 -0.00058959983 0.00090909266 -0.00073156884 -0.0016638091 -0.0011866488 -0.0007092734 -0.0007702487 -0.00093104824 0.000395544 0.0013404338 -0.0014242196 -0.0016139733 -0.00094700995 0.0005333023 0.00035792103 0.00048544162 0.00080994033 -0.00024278194 -0.0015507934 -0.0014981953 -8.027269e-05 0.0014976432 0.0011034785 -0.00010871172 5.8273683e-05 0.0016460819 -0.00026590104 0.00035130154 -0.0012001488 -0.00044382171 0.00058481074 0.0004960206 0.00033286813 0.0002413275 -0.00039084232 -0.000752983 0.00037176578 -0.00019257372 -5.933683e-05 -0.00080296176 -0.0010916153 0.0016538134 -0.0015987561 -0.0016130424 0.0007244827 -0.0014511612 -0.00107274 -0.0007076178 -0.0010660317 0.0011144307 0.0014740232 -0.0012571886 -0.0015188202 0.00052039017 -0.00023682823 -0.0014919701 -0.0014825093 -0.00065502984 0.0013500854 -0.00025209173 -0.0011614544 -0.001213707 0.00047209082 -0.00048672574 -0.00021126893 -0.0003163616 -0.00046646062 -0.0012902055 0.0010205434 0.00088043144 -0.0005218187 0.0008471996 -0.0015480609 0.00033316383 -0.0014591436 -0.001481776 -0.0015060322 0.0011171768 0.0015094158 2.6795811e-05 0.0007832727 -0.0014214332 0.00022804191 -3.142358e-05 -0.0011852945 0.00083316234 -0.0010498045 2.1317463e-05 0.00030613007 -0.0009679797 -0.00062484713 -0.00025684104 0.00025033602 -0.0005169612 0.0013855263 0.001521797 -0.0006568521 0.0016277961 -0.0013125271 0.001141769 -0.0012293486 -5.0105307e-05 -0.00013863252 -0.0005569422 0.0012628753 0.00038977587 8.882396e-05 0.00014146035 -0.0007655363 0.00088493474 0.0008700671 -0.0004950825 0.0005593744 -9.271545e-05 0.0011192196 -0.0011778531 -0.0003772875 0.0014440911 -0.0005349606 0.0005120263 0.0009003715 -8.286425e-06 -0.0010127922 0.0008282057 -0.0007788834 -0.0008412068 -0.001527842 -0.00093500025 -0.00048785584 -6.867154e-05 -0.00017559201 -0.00028056704 4.0070856e-05 -0.00018362464 0.00024282098 -0.0007864713 0.0007720698 0.00061874854 -0.0007990023 -0.0008037121 0.0003263412 -0.0012882449 0.00034446464 0.0009771154
อยู่ -9.2372786e-05 0.0015032951 -0.0013353248 -0.001132916 0.00013325077 0.0006581771 -9.0399975e-05 0.0007800767 -0.0005558354 -0.0011504564 0.00039617965 -0.00037589343 0.00050880644 0.00097158464 -0.0009277614 2.7100892e-05 0.0003249734 -0.0010067939 0.0007878509 0.0015051749 -0.00046382568 0.0016070956 -0.0006612365 -0.00048066163 0.0010017877 -0.0012848221 0.0013068178 -0.0005762005 -0.001117818 0.00030141658 0.0016047325 -0.0013290528 0.0014848654 0.0014759953 0.001005983 -0.00068175414 0.0008903178 -0.001469662 0.0015169957 0.0014202246 -0.0011744356 -0.0011429391 -0.00031112795 -3.8443027e-06 0.0005062881 -0.0013383516 -0.0002045167 -0.00028988728 -0.0010748825 0.0009597982 0.0011792573 -0.0016370582 0.0013216047 0.00038110773 0.00057048065 -0.00016665898 0.00011523323 -0.00026104896 0.000268708 -0.0016023468 0.0016065134 -0.0010320806 -0.0008578174 -0.0010980199 0.001142699 -0.0007420148 0.0015112067 0.00036394707 -0.000141197 0.0016453546 0.00045696358 -0.001349603 0.00069182523 0.0007919473 -0.00079656986 -0.0014660412 0.0011605215 0.0011265534 -0.0006944527 0.00032723855 -0.000880484 -0.0007409459 -0.000831987 -0.0015246086 0.00040163944 0.0006267884 -0.00046902994 0.0013708485 0.0006098451 0.00065045495 -0.0009106363 -0.00080325117 -0.0015389281 -0.0016326896 -0.0010354896 -0.0013710984 0.0005656321 0.00060501706 0.0011563302 0.00090899534 -0.0005124543 -0.0007720336 3.0173445e-05 -0.001347639 0.0015486624 0.0014245587 0.0013156707 0.00089314085 -0.0012533675 0.0013548656 -6.427965e-05 -0.00036160217 -0.0003405117 -0.001503542 -0.0011485715 -0.00013070996 -0.00048839196 -0.0011237912 -0.00037066935 0.0004630296 0.0005971785 4.26546e-05 0.0010668292 0.000605546 0.0012003109 0.00073716673 0.00013694118 0.0012313474 -0.0013944096 -2.3954586e-05 -3.6994967e-05 -0.0008620316 0.0010799329 -0.001105449 -0.0005633716 -0.00079717924 -0.001649802 -0.0003866546 0.0015792572 -0.0012383059 0.0016410209 -0.0008542059 -0.0014727307 0.00092230935 8.057489e-05 -0.0009020464 0.0007127662 -2.8435174e-05 -0.0014009207 0.00112063 0.00011459869 -0.0002268451 0.0012093877 -0.00094670977 -0.0005397622 8.652143e-05 -0.001619005 -0.00095533463 0.0015916782 0.0016109035 0.0012898193 -0.0002960628 0.00077266194 -0.00071900187 -0.0010299265 0.00027177826 -0.0009938922 4.408635e-05 0.0015812261 -0.00086745684 0.0013111202 -0.0015320833 0.00031315384 0.00037982414 -0.00031657788 -0.0010054675 0.00022253073 -0.0008789633 2.2063523e-05 0.0007331775 0.0013293821 -0.0015181351 -5.0662653e-05 -0.0002064769 -0.00092938426 0.0011412213 -0.0014841541 0.0003637311 -0.0014416658 -0.00092425063 -0.0014946257 -0.000696618 0.0009293417 0.0014712726 0.0006812822 -0.0012863718 0.0011898456 0.00019140128 0.0012250913 0.00040808695 -0.00029270153 0.0005206723 0.0011450186 0.0009812629 0.00029844497 -0.00013794996 0.0014689052 -0.0015104203 0.000801003 -0.00088992383 -0.000108825174 0.000765019 0.00055530935 0.001506166 -0.0010458583 -0.00018041061 -0.0007993648 -0.0006845387 0.0013942722 0.0010811201 0.00035136758 -0.0005834237 6.915718e-05 -0.00066608697 -0.00034650863 0.0011733006 -0.00022486389 -0.0013451515 -0.0011186096 -0.00094210944 0.0015717186 0.00079255726 -0.0008771001 -0.0002191324 0.00063913094 -0.00074744143 -0.0010871708 4.8443846e-05 -0.0003086449 -0.00016680287 0.0009793353 -0.0011033653 -0.00024234135 -0.0008544478 -0.0013267602 0.0008322752 -0.0003184026 -0.0010447856 -0.0010744764 -0.0006985584 0.0014317917 0.00043408014 -0.0006354141 0.00075183983 -0.0015159325 -0.0013638777 -0.00048289646 -0.0012834993 -0.00156411 -0.0011512638 0.0009041513 0.0011866806 0.0014016351 -0.0011228662 -0.0009427005 0.0014213385 0.0008799946 0.00025154915 -0.0011823046 0.00030178306 -0.0009734656 8.424473e-05 -0.00097414467 0.0007659234 -0.001542899 -0.00010134331 -8.259921e-05 0.0015226803 -0.00014572828 0.00082086877 0.0012857588 -0.001494217 0.00071575533 9.287004e-05 0.0001308356 -0.00012484199 0.00047487445 0.0008201878 -0.0012472813 -0.00063619396 0.0011446482 0.0008067761 -0.00030836594 -0.0009457057 -0.0015174694 -0.0005902589 0.0015553773 -0.0009977251 0.00075823575 0.00042762342
จน -0.00070366624 0.0012526077 -0.000100210964 -0.0006407998 0.0013421563 0.0014046438 0.0008623121 0.0006719195 0.00071767607 0.0011035156 0.000349275 0.00051558565 0.0007302331 0.000656063 -0.0012609824 -0.00088888645 3.3474822e-05 -0.0013118242 0.00046863177 -0.00041637692 -0.0008458518 -0.00066446874 0.00014862648 -0.001479762 0.00031915738 -0.0015897937 -0.0015400383 0.00061644334 0.0010323935 0.0008838582 0.0014725036 0.0011098007 -0.0014211508 -0.0016351033 0.00015115374 0.0014245826 -0.0011329413 -9.805436e-05 0.0013265569 -0.00058487937 0.00090468617 0.0014503512 0.0010173045 -0.00013511021 -0.0013732277 0.0009838558 -0.0009421858 -0.0005497455 0.00050044275 -0.0007803172 0.0014355237 0.0016378325 0.0016281477 -0.00037528432 -0.00029124034 -0.0009556967 -0.00037744048 -0.0011208 -0.0011572976 0.0012916022 2.2763666e-05 0.0015883325 -0.00019374874 0.0008565835 0.0007286782 0.0014777511 -7.523861e-05 -1.3948045e-05 0.0010830855 -0.0009294133 0.00047329866 -2.082198e-05 -0.0007834126 -0.0014713975 -0.00085739285 0.0008511978 -0.0008384773 -0.00030421678 -0.000552713 0.00054008013 -1.768977e-05 0.0014446146 -0.0013117292 -0.00057113165 0.0012759189 -0.00109236 -0.00041906224 0.0015877569 0.0014424883 -0.0012876823 0.0005714672 -0.0013316509 0.0005396158 0.0012971491 0.0012458179 -0.00069542887 0.0009595896 8.637261e-05 -0.00018042765 0.0015951061 0.00039794075 0.00067941204 0.00038483617 -0.00151213 0.0013343049 -0.0015444674 0.0012044939 -0.0007333598 0.0011921836 0.0015402153 -0.0014890856 -0.00022721216 -0.00068113586 7.941359e-05 0.00026631812 -0.00031342183 0.0011558267 0.0007997342 0.0008860036 0.00071307924 0.0007403715 0.00011205506 0.0011791202 0.00077715784 -0.0008391091 -0.00045069063 0.0001194885 -0.0016272786 6.137237e-05 0.0015122287 -0.00069896213 0.0006524458 0.00013533942 -0.0010350764 -0.00097284396 -0.0014533326 -0.00040117145 0.00038125983 -0.0014274315 0.00019292269 0.0010246105 -0.00095144805 -0.00041512458 -0.0015648782 0.0008008554 0.00074945384 0.00039277482 -8.162881e-06 -0.0001664709 0.00029281087 -0.0006793036 -0.0008668474 0.00045428463 -0.0006708484 0.00060229306 -0.0002778563 -0.00012754458 0.0011050126 0.0008227397 -0.0014016395 8.848219e-05 0.0011760853 -0.00038132066 0.0016262352 0.00083919 -0.0012243907 0.00028382824 0.0011041064 -0.001364277 0.0006604952 6.363428e-05 -0.0015622004 -0.00034039983 0.0005447269 0.0010915636 -0.00023639466 -0.0015924004 0.00078395545 0.0015377535 -0.00036396793 -0.00012743466 -0.00013136129 4.5544057e-05 -0.00029266483 0.0009974131 -0.0015451033 9.97446e-05 0.0007095006 -0.0011839316 0.00025529502 0.00028944755 0.000176446 -0.0005320435 -0.00045863583 0.0011897674 -0.00084417174 0.001000235 -0.0007928573 -0.00046474786 0.0015678091 0.00066088815 -0.0010065589 0.00045624067 0.00071759365 -0.0012834298 0.001388553 -0.0005125655 0.0012111543 0.0011834938 0.00075275375 -0.00050970673 0.0012261048 -0.00025355237 -0.00017387343 0.0016433053 -0.0013578321 0.0010733255 -0.0004143252 -0.0013106492 -0.00074463955 -0.0005778408 0.0003954637 -0.0004999321 0.00047022876 0.0013504932 -0.0015582106 -0.0010558391 1.1947255e-05 -0.0007157178 0.00060929806 -0.00075720245 -0.0013322609 0.00028510453 -0.000901702 -0.0008133319 -0.00053671765 0.000933252 -0.0014332997 0.00020212014 -0.0011878605 5.8913844e-05 -0.0010655386 0.0004207705 -0.0005308982 -0.0011685456 0.00023603158 0.0016022149 0.0006643892 0.00034653995 0.0014966155 -0.0015717332 0.0012524682 -0.0010257009 -0.00097087387 -0.000104156374 0.0010922791 0.0011254288 0.00015480292 -0.0009401399 -0.0009194856 0.0009584015 0.00039919294 -0.00073445874 0.00033789224 -0.001007346 0.00057221146 0.0010811432 0.00035807976 0.00093894557 -0.0016267173 0.001049134 -0.0012284633 -0.00042995735 -4.028917e-06 -0.00029837762 -0.0011698591 -0.0012456303 0.0014156991 -0.00059209345 0.00059844006 0.00087910076 0.0008973298 -0.0015017397 -0.0012018235 0.0005863603 0.0014488179 -0.00036350387 0.00085967546 -0.0009012809 -0.0005361158 0.0014629127 -0.00020755449 0.00077640143 0.0008265119 -0.0008884518 0.001364631 -0.0008097891 0.0014390401 -0.0002773926 0.00066548225
